SVM-light Version V6.02
0 # kernel type
3 # kernel parameter -d 
1 # kernel parameter -g 
1 # kernel parameter -s 
1 # kernel parameter -r 
empty# kernel parameter -u 
41587 # highest feature index 
200 # number of training documents 
133 # number of support vectors plus 1 
0.70817573 # threshold b, each following line is a SV (starting with alpha*y)
-0.68828827491608834954206486145267 132:0.062068835 388:0.062068835 422:0.062068835 689:0.09909793 910:0.062068835 986:0.062068835 1183:0.09909793 1595:0.09909793 1603:0.12902445 1707:0.12902445 1750:0.062068835 2197:0.062068835 2201:0.062068835 2540:0.062068835 2761:0.062068835 2791:0.062068835 3239:0.058528833 3342:0.1175583 3592:0.14274633 3921:0.062068835 4285:0.062068835 4451:0.062068835 4934:0.062068835 4984:0.062068835 5055:0.062068835 5146:0.062068835 5235:0.062068835 5500:0.062068835 5686:0.062068835 5971:0.062068835 6160:0.09909793 6506:0.062068835 6562:0.09909793 6772:0.062068835 6874:0.062068835 6971:0.09909793 7376:0.062068835 7409:0.062068835 7440:0.062068835 7733:0.13367344 8275:0.062068835 8717:0.062068835 9113:0.062068835 9158:0.062068835 9697:0.062068835 9811:0.09909793 9883:0.062068835 9951:0.09909793 10240:0.062068835 10371:0.1175583 10819:0.062068835 11462:0.062068835 11628:0.062068835 11711:0.062068835 11785:0.062068835 11806:0.09909793 12195:0.062068835 12209:0.09909793 12780:0.13693589 13494:0.062068835 13502:0.062068835 13692:0.09909793 14165:0.062068835 15264:0.062068835 15447:0.062068835 15786:0.13693589 15894:0.062068835 16344:0.062068835 16604:0.062068835 16940:0.09909793 17508:0.062068835 17707:0.062068835 17878:0.062068835 18164:0.062068835 18857:0.09909793 19080:0.062068835 19249:0.12902445 19364:0.062068835 19713:0.12902445 20258:0.062068835 20263:0.12902445 21130:0.062068835 21193:0.062068835 22361:0.062068835 22402:0.062068835 22879:0.062068835 23022:0.15709834 24109:0.062068835 24250:0.062068835 24274:0.062068835 24560:0.062068835 24725:0.062068835 25322:0.062068835 25412:0.062068835 25431:0.062068835 25510:0.062068835 25618:0.062068835 25802:0.062068835 26134:0.062068835 26261:0.062068835 26832:0.062068835 26885:0.09909793 27534:0.062068835 27574:0.062068835 28050:0.062068835 28907:0.062068835 28943:0.062068835 29166:0.062068835 29360:0.058528833 30349:0.062068835 30482:0.14274633 30627:0.15774895 30703:0.062068835 31365:0.062068835 31726:0.062068835 31757:0.062068835 32161:0.16367196 32255:0.09909793 32440:0.062068835 32779:0.062068835 33312:0.062068835 33394:0.062068835 33771:0.062068835 33833:0.062068835 34126:0.1175583 34889:0.062068835 34917:0.12902445 34935:0.062068835 35200:0.12902445 35267:0.062068835 35757:0.062068835 35938:0.062068835 36136:0.062068835 36427:0.16367196 36723:0.062068835 36766:0.062068835 36841:0.09909793 36910:0.062068835 37265:0.09909793 37522:0.062068835 37891:0.062068835 38199:0.062068835 38257:0.062068835 38259:0.062068835 38305:0.062068835 38366:0.1175583 38915:0.062068835 39470:0.062068835 39580:0.062068835 39823:0.09909793 40278:0.062068835 40424:0.062068835 41479:0.1175583 #
-0.43486803702384957404092347132973 70:0.28770489 1485:0.22853695 1603:0.1464171 2034:0.1464171 2411:0.1464171 3342:0.1464171 5526:0.22853695 6562:0.28770489 7608:0.1464171 8103:0.1464171 8273:0.1464171 13778:0.1464171 14288:0.22853695 20263:0.1464171 21130:0.1464171 22079:0.1464171 22402:0.22853695 23872:0.1464171 24340:0.1464171 25352:0.1464171 25431:0.1464171 26445:0.1464171 31701:0.1464171 32080:0.1464171 32440:0.22853695 36136:0.1464171 36408:0.1464171 36427:0.26623237 36545:0.1464171 41311:0.22853695 #
-0.99999999698600738895493122981861 1603:0.1355972 2344:0.2130937 3774:0.2130937 5532:0.1355972 5578:0.1355972 6137:0.1355972 6562:0.24962045 6845:0.1355972 9310:0.22917864 11195:0.1355972 11690:0.1355972 13838:0.1355972 16604:0.1355972 17878:0.1355972 19070:0.24962045 19545:0.1355972 20263:0.2130937 20587:0.1355972 23022:0.2130937 24109:0.1355972 25552:0.1355972 26575:0.2130937 27534:0.2130937 27896:0.1355972 29592:0.1355972 31710:0.1355972 31945:0.2130937 32161:0.1355972 32440:0.2130937 36427:0.27104682 36766:0.1355972 37119:0.1355972 39879:0.1355972 #
-0.99999999698600738895493122981861 348:0.11225603 861:0.22346793 3342:0.17612311 3592:0.2060384 5440:0.17612311 5526:0.11225603 5971:0.22346793 6562:0.25638986 8092:0.17612311 12178:0.11225603 13850:0.17612311 13870:0.11225603 15786:0.24236037 16096:0.11225603 16890:0.11225603 17432:0.11225603 19545:0.17612311 20197:0.17612311 20263:0.17612311 23606:0.11225603 23796:0.11225603 25412:0.11225603 25766:0.11225603 26575:0.17612311 29232:0.11225603 29592:0.11225603 30137:0.11225603 30627:0.2060384 31093:0.11225603 32161:0.17612311 32628:0.11225603 34935:0.11225603 35938:0.17612311 36427:0.2060384 38645:0.17612311 39059:0.11225603 39102:0.11225603 39441:0.11225603 40131:0.11225603 40626:0.2060384 #
-0.99999999698600738895493122981861 1183:0.12013876 2197:0.12013876 3592:0.18846126 4990:0.12013876 7178:0.12013876 7733:0.12013876 9310:0.12013876 9862:0.12013876 9951:0.12013876 10686:0.12013876 11159:0.18846126 11363:0.23906645 11694:0.12013876 11746:0.12013876 11847:0.12013876 13049:0.12013876 13864:0.12013876 16155:0.12013876 16241:0.12013876 16469:0.12013876 17432:0.12013876 19636:0.12013876 20263:0.12013876 20586:0.12013876 20771:0.12013876 21440:0.12013876 21810:0.12013876 22056:0.23906645 22079:0.12013876 22132:0.12013876 22879:0.12013876 23045:0.12013876 23796:0.22044435 25552:0.18846126 25893:0.12013876 26575:0.23906645 29592:0.12013876 30035:0.12013876 30482:0.18846126 30627:0.22044435 30764:0.12013876 33394:0.12013876 34126:0.18846126 36194:0.12013876 36427:0.22044435 37522:0.12013876 #
0.79876370157738196819963150119293 422:0.055401184 535:0.058764432 689:0.058764432 910:0.051163994 1271:0.058764432 1595:0.093802363 1603:0.058764432 1625:0.11125777 1707:0.11125777 1750:0.12209235 2052:0.058764432 2088:0.058764432 2540:0.058764432 3342:0.13504586 3381:0.093802363 3592:0.093802363 3786:0.058764432 3799:0.058764432 3921:0.058764432 4270:0.058764432 4290:0.058764432 4898:0.058764432 4998:0.058764432 5440:0.058764432 5971:0.058764432 6090:0.058764432 6132:0.058764432 6506:0.058764432 6562:0.13923965 6864:0.058764432 6874:0.058764432 7608:0.058764432 8103:0.058764432 8263:0.058764432 8382:0.093802363 8412:0.058764432 8645:0.058764432 8688:0.058764432 8956:0.058764432 9019:0.058764432 9310:0.058764432 9697:0.058764432 9826:0.058764432 9862:0.058764432 9923:0.058764432 9990:0.093802363 10442:0.058764432 10819:0.058764432 10832:0.058764432 10841:0.093802363 11058:0.058764432 11159:0.058764432 11847:0.058764432 12147:0.058764432 12170:0.058764432 12209:0.058764432 12515:0.058764432 13179:0.093802363 13817:0.093802363 13850:0.093802363 14245:0.058764432 14484:0.058764432 14663:0.058764432 15228:0.058764432 15264:0.11125777 15298:0.058764432 15320:0.058764432 15736:0.058764432 15786:0.14254251 16331:0.058764432 16469:0.058764432 16479:0.058764432 16940:0.12209235 16960:0.058764432 16990:0.058764432 17030:0.058764432 17722:0.058764432 17878:0.11125777 18060:0.058764432 18857:0.058764432 19049:0.093802363 19080:0.058764432 19984:0.058764432 20197:0.058764432 20222:0.058764432 20263:0.14267264 20692:0.12622641 20989:0.058764432 21186:0.058764432 21191:0.11125777 21376:0.058764432 21440:0.058764432 21870:0.058764432 22079:0.058764432 22402:0.058764432 22451:0.058764432 22538:0.093802363 23045:0.11125777 23412:0.058764432 23796:0.12956296 24060:0.058764432 24109:0.058764432 24337:0.093802363 24363:0.058764432 24415:0.093802363 24428:0.058764432 24644:0.058764432 25213:0.058764432 25431:0.11125777 25476:0.11125777 25632:0.058764432 25737:0.058764432 26109:0.093802363 26241:0.058764432 26575:0.14991052 27136:0.11125777 27141:0.093802363 27574:0.12209235 27638:0.058764432 28050:0.058764432 28302:0.058764432 28336:0.058764432 28611:0.058764432 28943:0.058764432 29392:0.058764432 29592:0.058764432 30482:0.13504586 30627:0.058764432 30688:0.058764432 31093:0.093802363 31260:0.058764432 31365:0.058764432 31701:0.13923965 31741:0.058764432 31880:0.058764432 32161:0.058764432 32255:0.058764432 32440:0.093802363 32628:0.058764432 33384:0.093802363 34126:0.093802363 34976:0.12209235 35467:0.058764432 35739:0.093802363 36408:0.058764432 36427:0.11125777 36545:0.093802363 36779:0.058764432 37119:0.093802363 37522:0.058764432 37791:0.058764432 37926:0.058764432 37976:0.058764432 38299:0.058764432 38305:0.058764432 38602:0.093802363 39547:0.058764432 39624:0.14737424 40100:0.093802363 41450:0.13504586 41578:0.058764432 41587:0.093802363 #
0.71817555324517023951358396516298 1183:0.093010202 1595:0.1468389 1603:0.1468389 1707:0.093010202 2197:0.093010202 3416:0.093010202 4575:0.093010202 5532:0.093010202 7178:0.093010202 7513:0.17264505 8570:0.093010202 10468:0.093010202 10819:0.093010202 10832:0.093010202 14165:0.093010202 15264:0.17264505 15777:0.093010202 16155:0.093010202 17198:0.093010202 17900:0.093010202 20263:0.17264505 20586:0.093010202 21440:0.18805794 21810:0.093010202 22056:0.22167051 22079:0.19826902 22402:0.1468389 22936:0.093010202 23796:0.093010202 24060:0.093010202 24250:0.1468389 25491:0.18805794 26241:0.093010202 26575:0.22167051 27534:0.1468389 28023:0.093010202 28788:0.1468389 29592:0.18805794 31741:0.093010202 32145:0.17264505 32440:0.18805794 32718:0.19826902 32779:0.1468389 33142:0.093010202 33172:0.093010202 33394:0.1468389 33616:0.1468389 34126:0.093010202 34544:0.093010202 35827:0.093010202 35938:0.093010202 36427:0.18805794 36466:0.093010202 37976:0.093010202 38366:0.1468389 38915:0.093010202 39899:0.093010202 40506:0.093010202 41479:0.093010202 #
0.53868389284460538313226152240532 6562:0.4102647 9990:0.26660052 10832:0.4102647 26575:0.26660052 30349:0.24230893 31213:0.26660052 36427:0.4102647 36794:0.47234261 #
0.99999999698600738895493122981861 87:0.057204276 417:0.057204276 422:0.057204276 650:0.057204276 689:0.057204276 771:0.057204276 900:0.057204276 910:0.057204276 1183:0.057204276 1355:0.057204276 1373:0.091411941 1603:0.10851577 1625:0.057204276 1707:0.11916928 2037:0.057204276 2197:0.10851577 2563:0.057204276 2950:0.057204276 3290:0.057204276 3342:0.1265406 3381:0.057204276 3441:0.057204276 3774:0.057204276 4228:0.057204276 4290:0.091411941 4697:0.057204276 4998:0.057204276 5055:0.057204276 5085:0.057204276 5440:0.091411941 5501:0.057204276 5526:0.057204276 5686:0.091411941 6071:0.057204276 6090:0.091411941 6562:0.13613762 6749:0.057204276 6772:0.057204276 7178:0.057204276 7513:0.057204276 7733:0.10851577 8307:0.057204276 8489:0.091411941 8658:0.057204276 8688:0.057204276 9158:0.057204276 9310:0.11916928 9437:0.091411941 9858:0.057204276 10523:0.057204276 10832:0.057204276 10841:0.057204276 11617:0.057204276 11651:0.057204276 11654:0.057204276 11690:0.057204276 11746:0.057204276 11785:0.057204276 11806:0.057204276 11847:0.057204276 12106:0.057204276 12312:0.057204276 13692:0.057204276 13801:0.057204276 14016:0.057204276 14166:0.057204276 14795:0.057204276 15235:0.057204276 15264:0.057204276 15271:0.057204276 15377:0.057204276 15786:0.10851577 15933:0.057204276 16240:0.087549843 16469:0.057204276 16707:0.057204276 16794:0.057204276 16934:0.091411941 16980:0.057204276 17432:0.057204276 17707:0.057204276 18306:0.10851577 18338:0.091411941 18621:0.13196976 19049:0.057204276 19080:0.057204276 19117:0.091411941 19364:0.10851577 20197:0.091411941 20258:0.091411941 20263:0.1442814 20299:0.057204276 20805:0.057204276 20819:0.057204276 21186:0.057204276 21440:0.057204276 21666:0.057204276 22038:0.057204276 22220:0.057204276 22361:0.057204276 22535:0.091411941 22817:0.11916928 22879:0.057204276 22936:0.057204276 23001:0.057204276 23045:0.057204276 23402:0.057204276 23796:0.11916928 24061:0.057204276 24250:0.057204276 24274:0.091411941 24602:0.057204276 25022:0.10851577 25564:0.091411941 25721:0.057204276 25776:0.057204276 26169:0.057204276 26241:0.091411941 26343:0.057204276 26441:0.057204276 26575:0.13613762 26657:0.057204276 26787:0.10851577 26885:0.057204276 27534:0.057204276 28050:0.057204276 28348:0.091411941 28470:0.057204276 28580:0.057204276 29592:0.10851577 29983:0.057204276 30482:0.13613762 30627:0.091411941 30685:0.091411941 31158:0.057204276 31320:0.057204276 31365:0.057204276 31366:0.057204276 31445:0.057204276 31701:0.057204276 31726:0.057204276 32145:0.13613762 32255:0.10851577 32440:0.10851577 32577:0.053989362 32775:0.091411941 33172:0.057204276 33618:0.057204276 33782:0.057204276 34126:0.11916928 34567:0.057204276 35267:0.057204276 35614:0.057204276 35709:0.057204276 35757:0.091411941 35896:0.057204276 36427:0.1442814 36466:0.10851577 36852:0.091411941 36888:0.057204276 37522:0.057204276 37702:0.057204276 37739:0.057204276 37805:0.091411941 37976:0.057204276 38316:0.057204276 38627:0.057204276 39423:0.057204276 39746:0.10851577 39846:0.057204276 39863:0.057204276 39893:0.057204276 39899:0.057204276 39989:0.057204276 40318:0.057204276 40434:0.057204276 40534:0.091411941 40634:0.057204276 41485:0.057204276 #
-0.076887380857890125218645493987424 1527:0.28245056 8447:0.43539116 13502:0.28245056 15265:0.50198239 18298:0.28245056 22817:0.28245056 33025:0.28245056 33368:0.28245056 37982:0.28245056 #
-0.38589296876923123713609697915672 1595:0.33455575 9990:0.21483722 11617:0.21483722 11690:0.21483722 17432:0.21483722 19049:0.21483722 22721:0.21483722 23329:0.21483722 25802:0.21483722 27080:0.21483722 30820:0.21483722 31440:0.33455575 31998:0.21483722 32107:0.21483722 36427:0.41967788 40506:0.21483722 #
-0.087233526396513508260888158929447 1410:0.35355338 20258:0.35355338 21909:0.35355338 26241:0.35355338 33618:0.35355338 36763:0.35355338 37199:0.35355338 41587:0.35355338 #
-0.65990917965917184062618616735563 1080:0.34709823 3342:0.34709823 9990:0.34709823 18306:0.52643794 25893:0.34709823 36427:0.34709823 39688:0.34709823 #
-0.049620079206390221848721466813004 4984:0.46000147 8447:0.30215722 15265:0.46000147 18621:0.46000147 22817:0.30215722 33025:0.30215722 36466:0.30215722 #
-0.99999999698600738895493122981861 459:0.061927766 689:0.061927766 910:0.061927766 1097:0.098892942 1595:0.098892942 1603:0.098892942 1707:0.13670921 2197:0.061927766 2363:0.098892942 3325:0.061927766 4113:0.061927766 4228:0.061927766 5146:0.098892942 5440:0.061927766 5532:0.061927766 6160:0.061927766 6562:0.12879568 6713:0.061927766 6772:0.061927766 7178:0.098892942 7308:0.098892942 7683:0.061927766 7689:0.061927766 7733:0.14252505 8436:0.061927766 8645:0.061927766 8717:0.11733402 9436:0.061927766 9520:0.061927766 9883:0.12879568 10742:0.14252505 10819:0.061927766 11047:0.061927766 11617:0.098892942 11690:0.061927766 11811:0.061927766 12291:0.061927766 13398:0.061927766 13458:0.098892942 13659:0.098892942 14122:0.061927766 14165:0.061927766 15264:0.061927766 15265:0.061927766 15276:0.061927766 15300:0.061927766 15786:0.12879568 16011:0.098892942 16076:0.098892942 16523:0.061927766 16562:0.061927766 16980:0.061927766 16990:0.061927766 17329:0.061927766 17432:0.061927766 17490:0.061927766 17589:0.061927766 18306:0.13670921 18338:0.061927766 18347:0.061927766 18621:0.061927766 18849:0.098892942 18857:0.061927766 19049:0.098892942 19249:0.061927766 19364:0.098892942 19878:0.061927766 20221:0.098892942 20263:0.061927766 20692:0.061927766 21122:0.061927766 21153:0.061927766 21909:0.098892942 22003:0.061927766 22113:0.12879568 22217:0.061927766 22335:0.061927766 22353:0.061927766 22402:0.098892942 22529:0.061927766 23045:0.061927766 23329:0.13670921 23424:0.061927766 23750:0.061927766 23796:0.061927766 24278:0.098892942 24839:0.098892942 25022:0.11733402 25431:0.12879568 25564:0.061927766 26241:0.061927766 26743:0.11733402 26885:0.098892942 27080:0.061927766 27534:0.098892942 28497:0.061927766 28907:0.061927766 29360:0.098892942 29476:0.061927766 29592:0.061927766 30357:0.061927766 30482:0.061927766 30764:0.061927766 30820:0.098892942 31032:0.061927766 31213:0.061927766 31260:0.061927766 31440:0.098892942 31726:0.12879568 31998:0.061927766 32077:0.061927766 32080:0.061927766 32255:0.061927766 32404:0.098892942 32440:0.15332487 32576:0.061927766 32628:0.061927766 32779:0.061927766 33368:0.061927766 33384:0.061927766 33394:0.098892942 34163:0.061927766 35267:0.061927766 35476:0.061927766 35709:0.11733402 35739:0.061927766 35757:0.061927766 36016:0.061927766 36194:0.061927766 36403:0.061927766 36427:0.16054597 37522:0.1671261 37600:0.061927766 37658:0.11733402 37791:0.061927766 37805:0.061927766 37891:0.061927766 37927:0.098892942 38259:0.061927766 38314:0.061927766 39898:0.098892942 40506:0.098892942 41446:0.061927766 41587:0.061927766 #
0.99999999698600738895493122981861 348:0.085214235 1183:0.19785789 3342:0.20938651 3592:0.22040859 3786:0.20938651 7178:0.20938651 8092:0.085214235 14544:0.13642079 16520:0.17831388 17878:0.21353865 18302:0.085214235 19070:0.085214235 20263:0.19785789 20587:0.085214235 22402:0.21984881 22936:0.17831388 24028:0.085214235 25491:0.16217826 26241:0.18954144 26575:0.085214235 27208:0.085214235 29438:0.085214235 29620:0.16217826 29623:0.085214235 30627:0.22202943 30685:0.085214235 31365:0.16217826 31710:0.20938651 32266:0.19785789 32407:0.085214235 32440:0.16217826 33470:0.16217826 34126:0.19785789 34600:0.085214235 35938:0.20427939 36723:0.13642079 37976:0.18954144 41311:0.18954144 #
0.99999999698600738895493122981861 417:0.1024988 659:0.1024988 1183:0.16167384 1457:0.1024988 1707:0.21788995 3381:0.1024988 3592:0.18995032 5526:0.1024988 6137:0.18185225 6506:0.1024988 6562:0.18995032 7178:0.1024988 8293:0.1024988 8658:0.1024988 9310:0.20678093 11624:0.1024988 14016:0.16167384 14163:0.1024988 16011:0.1024988 17151:0.22567195 17432:0.16167384 19070:0.1024988 20088:0.1024988 20258:0.16167384 20263:0.21353915 21080:0.20678093 21440:0.1024988 21810:0.16167384 22402:0.16167384 22879:0.16167384 22936:0.1024988 25491:0.1024988 25552:0.16167384 25719:0.1024988 26575:0.16167384 26832:0.1024988 29232:0.18995032 29438:0.1024988 30234:0.1024988 30820:0.1024988 31365:0.16167384 32255:0.1024988 32440:0.21788995 33368:0.1024988 35739:0.1024988 35938:0.1024988 36427:0.16167384 37976:0.1024988 39898:0.1024988 #
0.99999999698600738895493122981861 31:0.093533263 417:0.20172763 861:0.093533263 1707:0.17480513 2052:0.093533263 2197:0.1482259 2540:0.093533263 3989:0.093533263 5055:0.093533263 5440:0.20172763 5686:0.20172763 6562:0.17480513 7733:0.19090305 8113:0.093533263 8717:0.093533263 9330:0.093533263 10009:0.093533263 12562:0.093533263 13692:0.093533263 14163:0.1482259 15933:0.093533263 16990:0.093533263 17490:0.093533263 18306:0.093533263 18358:0.093533263 18621:0.093533263 20197:0.093533263 20263:0.1482259 20587:0.093533263 22402:0.093533263 22936:0.093533263 23329:0.093533263 23796:0.1482259 24060:0.093533263 24822:0.093533263 25719:0.093533263 25833:0.093533263 26575:0.093533263 27534:0.093533263 28408:0.093533263 29592:0.17480513 30083:0.093533263 30482:0.20396011 30685:0.093533263 30764:0.093533263 31320:0.19090305 31365:0.093533263 31710:0.093533263 32161:0.1482259 32440:0.1482259 33172:0.1482259 33998:0.093533263 34567:0.093533263 35640:0.093533263 36194:0.093533263 36427:0.23207527 36518:0.093533263 37412:0.093533263 37522:0.21009722 37791:0.1482259 37927:0.17480513 38305:0.093533263 #
0.99999999698600738895493122981861 861:0.085460961 910:0.085460961 1707:0.13546132 3239:0.13546132 3342:0.19153057 4880:0.13546132 5056:0.085460961 5440:0.085460961 5500:0.085460961 6562:0.085460961 8356:0.085460961 8383:0.085460961 8570:0.085460961 9039:0.085460961 9310:0.18443429 9951:0.085460961 11479:0.085460961 11746:0.085460961 11978:0.085460961 13398:0.085460961 14016:0.13546132 14152:0.085460961 14165:0.085460961 15264:0.18443429 15447:0.085460961 15933:0.085460961 16113:0.085460961 16505:0.085460961 16623:0.085460961 16705:0.085460961 17399:0.085460961 18306:0.13546132 18857:0.15977789 19364:0.085460961 19545:0.085460961 20221:0.085460961 20258:0.085460961 20263:0.17451625 20587:0.085460961 21130:0.085460961 21481:0.085460961 21545:0.085460961 22879:0.085460961 22936:0.085460961 22988:0.13546132 23796:0.19153057 24060:0.085460961 25552:0.13546132 25714:0.18443429 26575:0.085460961 26885:0.085460961 27049:0.20400469 27915:0.085460961 28354:0.085460961 29232:0.13546132 29592:0.085460961 30083:0.085460961 30482:0.085460961 30764:0.085460961 30820:0.085460961 31365:0.085460961 31366:0.085460961 31545:0.085460961 32161:0.085460961 32255:0.085460961 32440:0.085460961 32577:0.085460961 32779:0.085460961 32977:0.085460961 33368:0.085460961 34126:0.085460961 34626:0.085460961 34935:0.085460961 35923:0.085460961 36427:0.21005914 37099:0.085460961 37805:0.13546132 38961:0.15977789 39133:0.13546132 39898:0.085460961 40506:0.085460961 40522:0.080005638 41105:0.085460961 41446:0.085460961 41479:0.085460961 #
0.54727619154873863305255099476199 70:0.13000754 348:0.067544162 602:0.067544162 771:0.067544162 1080:0.15311268 2448:0.067544162 3342:0.067544162 3429:0.067544162 5269:0.067544162 5585:0.067544162 5775:0.067544162 6053:0.10882089 6475:0.160337 6772:0.067544162 6885:0.067544162 7178:0.15311268 7215:0.067544162 7608:0.10882089 8092:0.067544162 8103:0.10882089 8355:0.20331565 8717:0.14353117 9052:0.067544162 9883:0.10882089 10080:0.061949287 10832:0.067544162 10919:0.067544162 11168:0.14353117 11195:0.067544162 11806:0.067544162 13618:0.067544162 13753:0.067544162 14163:0.067544162 14476:0.064271368 14544:0.061949287 15265:0.10882089 16207:0.10882089 17311:0.13000754 17878:0.10882089 18009:0.15311268 18302:0.13000754 18650:0.10882089 19070:0.13000754 20088:0.10882089 22053:0.067544162 22936:0.19567569 23022:0.15311268 24028:0.18036579 24475:0.067544162 25491:0.17061247 25802:0.067544162 26241:0.067544162 26575:0.14353117 26748:0.067544162 27012:0.10882089 27208:0.061949287 27574:0.10882089 27968:0.067544162 28026:0.067544162 28090:0.067544162 28907:0.049372416 29438:0.067544162 29623:0.14001939 30129:0.10882089 30627:0.18273297 30685:0.10882089 31242:0.13000754 31710:0.14353117 31726:0.16601504 32407:0.10882089 33830:0.18659693 34126:0.10882089 34600:0.10882089 35200:0.14353117 35739:0.067544162 35938:0.067544162 36620:0.14353117 37791:0.067544162 38433:0.067544162 38672:0.067544162 39102:0.067544162 39751:0.067544162 39758:0.16601504 40455:0.10882089 #
-0.99999999698600738895493122981861 422:0.1084136 861:0.17087559 1183:0.1084136 1707:0.17087559 3342:0.17087559 3592:0.1084136 5971:0.1084136 7178:0.1084136 7513:0.1084136 8293:0.17087559 8570:0.1084136 8688:0.1084136 9310:0.1084136 9330:0.1084136 9990:0.1084136 10832:0.17087559 11058:0.1084136 11746:0.1084136 17432:0.1084136 17707:0.1084136 19117:0.1084136 20263:0.2102676 20299:0.1084136 21440:0.17087559 21545:0.1084136 22079:0.1084136 22936:0.1084136 23796:0.21830638 24060:0.1084136 24217:0.1084136 24277:0.1084136 24536:0.10092188 24644:0.1084136 25552:0.17087559 26787:0.1084136 27922:0.21830638 28270:0.1084136 29603:0.1084136 30482:0.2439191 30521:0.22992982 34126:0.2006408 35827:0.1084136 35923:0.1084136 35938:0.1084136 36427:0.17087559 37119:0.1084136 37891:0.1084136 37976:0.1084136 38262:0.1084136 38433:0.1084136 39133:0.17087559 39509:0.1084136 40364:0.1084136 #
-0.99999999698600738895493122981861 132:0.080463387 689:0.080463387 910:0.1276149 1183:0.080463387 1603:0.1276149 2228:0.080463387 2599:0.080463387 2761:0.080463387 3381:0.080463387 3665:0.080463387 3786:0.1505935 5500:0.080463387 5816:0.080463387 5872:0.080463387 5971:0.080463387 6872:0.080463387 7178:0.080463387 7513:0.1276149 7683:0.080463387 7733:0.1276149 8570:0.080463387 8645:0.080463387 8717:0.080463387 9409:0.080463387 9436:0.080463387 9826:0.080463387 9862:0.080463387 9883:0.1276149 9951:0.080463387 10686:0.1276149 10817:0.080463387 10832:0.080463387 11363:0.080463387 11846:0.080463387 14021:0.080463387 15264:0.080463387 15786:0.080463387 15894:0.080463387 16155:0.1276149 16241:0.1276149 16344:0.080463387 17030:0.1276149 17032:0.080463387 17571:0.080463387 18857:0.080463387 19364:0.080463387 20299:0.1276149 21193:0.080463387 21666:0.080463387 21870:0.080463387 22056:0.1505935 22220:0.080463387 22361:0.1276149 22451:0.080463387 22879:0.1276149 22936:0.1276149 22988:0.080463387 23307:0.080463387 23329:0.080463387 24061:0.080463387 24250:0.080463387 24274:0.080463387 24340:0.080463387 25893:0.1276149 25900:0.1276149 26177:0.080463387 26241:0.1276149 26575:0.1505935 26638:0.080463387 26885:0.080463387 28023:0.080463387 29804:0.080463387 30482:0.080463387 30685:0.1276149 30764:0.080463387 31453:0.080463387 31701:0.080463387 32161:0.20072882 32440:0.1276149 32779:0.080463387 33172:0.1505935 33368:0.080463387 33394:0.080463387 34126:0.080463387 34151:0.080463387 34756:0.080463387 34935:0.1276149 35200:0.080463387 35640:0.080463387 35739:0.080463387 36290:0.080463387 36427:0.19503282 37555:0.080463387 37702:0.080463387 37976:0.080463387 38305:0.080463387 38366:0.080463387 40131:0.18961564 40434:0.080463387 40522:0.080463387 40670:0.080463387 #
-0.99999999698600738895493122981861 1707:0.10135962 3239:0.10135962 3342:0.10135962 3592:0.10135962 5055:0.10135962 7440:0.16009031 7733:0.21635911 8293:0.10135962 8563:0.10135962 9310:0.10135962 9804:0.10135962 9826:0.10135962 10761:0.10135962 10832:0.10135962 11047:0.10135962 11806:0.10135962 11978:0.10135962 12178:0.10135962 12562:0.10135962 13692:0.10135962 15184:0.16009031 15786:0.10135962 16290:0.10135962 16623:0.10135962 16990:0.10135962 17707:0.10135962 19049:0.10135962 19545:0.10135962 20263:0.10135962 21130:0.10135962 21186:0.10135962 22655:0.16009031 22817:0.10135962 23750:0.16009031 24535:0.10135962 25412:0.10135962 26575:0.10135962 29503:0.10135962 30349:0.10135962 30407:0.10135962 30482:0.16009031 30820:0.10135962 30892:0.10135962 31365:0.10135962 31680:0.23002823 32145:0.22425058 32161:0.10135962 32255:0.10135962 32440:0.10135962 33172:0.10135962 33616:0.10135962 34713:0.10135962 35739:0.10135962 36348:0.10135962 36427:0.21635911 36461:0.10135962 36794:0.21635911 37658:0.2051622 37695:0.10135962 37702:0.10135962 39102:0.16009031 39605:0.10135962 41479:0.21635911 #
-0.41351697319632918503629070983152 861:0.27365109 5440:0.27365109 5971:0.17705958 6506:0.17705958 7178:0.17705958 8356:0.17705958 9858:0.17705958 11746:0.17705958 14016:0.17705958 14019:0.17705958 19117:0.17705958 20258:0.17705958 20263:0.27365109 22817:0.17705958 29592:0.17705958 30482:0.33927047 31726:0.27365109 32440:0.33927047 33484:0.17705958 34600:0.17705958 36427:0.17705958 #
-0.69701103608365333474949920855579 689:0.11792983 1707:0.11792983 3090:0.11792983 3665:0.11792983 3747:0.11792983 4546:0.11792983 5686:0.11792983 6562:0.21758306 7178:0.11792983 8307:0.11792983 8570:0.11792983 10009:0.18555863 10761:0.11792983 10764:0.11792983 10832:0.11792983 11617:0.11792983 12178:0.11792983 12607:0.11792983 12666:0.11792983 15206:0.11792983 15264:0.18555863 16980:0.11792983 18235:0.11792983 18621:0.25732881 20805:0.11792983 21186:0.11792983 21440:0.11792983 25552:0.11792983 25721:0.11792983 26445:0.18555863 28957:0.11792983 29232:0.11792983 29592:0.18555863 31093:0.11792983 31242:0.11792983 31366:0.11792983 31710:0.11792983 32440:0.27372524 33935:0.18555863 34126:0.11792983 34567:0.11792983 34935:0.11792983 34951:0.23646247 36427:0.18555863 37522:0.18555863 37658:0.11792983 38259:0.11792983 40184:0.11792983 #
0.99999999698600738895493122981861 1395:0.17560208 5312:0.17560208 8447:0.17560208 15265:0.2736561 15786:0.2736561 18621:0.31837898 20263:0.17560208 25893:0.17560208 26575:0.2736561 28907:0.17560208 29476:0.2736561 31710:0.17560208 32440:0.37653595 33935:0.17560208 34951:0.34366822 35614:0.17560208 36763:0.17560208 39145:0.17560208 #
0.99999999698600738895493122981861 2017:0.15901323 3342:0.15901323 4984:0.32759878 7178:0.24831808 7733:0.15901323 9862:0.15901323 11746:0.15901323 15265:0.15901323 16860:0.15901323 18306:0.15901323 18621:0.31283906 20399:0.15901323 23796:0.15901323 25431:0.15901323 26575:0.15901323 30349:0.15901323 30482:0.28939101 30820:0.15901323 32440:0.32759878 35476:0.15901323 36427:0.24831808 37658:0.15901323 37698:0.15901323 40318:0.15901323 40364:0.15901323 #
0.99999999698600738895493122981861 5532:0.16730903 6562:0.26076898 6874:0.16730903 8955:0.16730903 10585:0.16730903 14951:0.16730903 18306:0.16730903 19545:0.16730903 22817:0.16730903 22936:0.16730903 23329:0.30342081 23796:0.16730903 26575:0.16730903 26743:0.16730903 27178:0.16730903 28331:0.16730903 30482:0.16730903 30820:0.16730903 33998:0.26076898 35739:0.26076898 35757:0.26076898 36427:0.26076898 37522:0.30342081 37982:0.16730903 #
0.14113717644198678358158360879315 598:0.13193157 700:0.083253413 910:0.083253413 1183:0.16991071 1527:0.13193157 1603:0.13193157 1625:0.16991071 1707:0.13193157 1750:0.083253413 2052:0.13193157 3665:0.18642703 6562:0.13193157 7178:0.083253413 7733:0.13193157 8000:0.083253413 8361:0.16991071 8489:0.083253413 8570:0.083253413 9158:0.083253413 9310:0.083253413 9330:0.083253413 9862:0.083253413 9883:0.083253413 11351:0.083253413 11479:0.083253413 11687:0.083253413 11746:0.083253413 11811:0.083253413 11847:0.083253413 13461:0.083253413 13494:0.083253413 14163:0.083253413 15584:0.083253413 15736:0.083253413 15786:0.13193157 16604:0.15558574 16990:0.083253413 17399:0.083253413 17432:0.083253413 17957:0.083253413 18480:0.083253413 19080:0.083253413 19112:0.083253413 19364:0.083253413 20263:0.1795422 20587:0.13193157 20852:0.083253413 21130:0.083253413 22485:0.083253413 23796:0.1795422 24250:0.083253413 24274:0.083253413 25431:0.083253413 25552:0.083253413 25893:0.083253413 26261:0.083253413 26343:0.083253413 26575:0.20434193 26885:0.083253413 27534:0.13193157 28331:0.083253413 28348:0.083253413 28354:0.083253413 30083:0.083253413 30482:0.1795422 30820:0.083253413 31033:0.13193157 31039:0.083253413 31365:0.13193157 32440:0.083253413 32779:0.083253413 32871:0.083253413 33172:0.083253413 33394:0.13193157 33484:0.083253413 34756:0.083253413 35739:0.083253413 36427:0.1795422 36852:0.083253413 37119:0.083253413 37805:0.083253413 38199:0.083253413 38915:0.083253413 39660:0.083253413 39823:0.083253413 39893:0.083253413 39898:0.083253413 40506:0.083253413 41479:0.083253413 #
0.99999999698600738895493122981861 527:0.087733895 900:0.087733895 1217:0.087733895 1373:0.087733895 1603:0.087733895 2034:0.087733895 2411:0.087733895 3724:0.087733895 4113:0.13928489 4984:0.087733895 4986:0.13928489 5526:0.087733895 6132:0.087733895 6160:0.087733895 6700:0.16449526 7733:0.087733895 8000:0.087733895 8092:0.087733895 8658:0.17986101 8928:0.13928489 9437:0.087733895 9826:0.13928489 9872:0.16449526 10240:0.13928489 10841:0.087733895 11617:0.13928489 11651:0.087733895 11806:0.16449526 13398:0.087733895 13692:0.087733895 14163:0.087733895 14302:0.087733895 14476:0.13928489 15235:0.087733895 15264:0.087733895 15604:0.13928489 16990:0.087733895 17435:0.087733895 17799:0.087733895 18480:0.087733895 18800:0.17986101 19112:0.087733895 19117:0.087733895 19364:0.087733895 19545:0.087733895 20197:0.087733895 20263:0.087733895 21420:0.087733895 21440:0.087733895 21738:0.087733895 22451:0.087733895 23441:0.087733895 24282:0.087733895 24428:0.087733895 25431:0.087733895 25552:0.087733895 25893:0.087733895 26203:0.087733895 26223:0.16449526 26575:0.087733895 26961:0.087733895 28654:0.087733895 28765:0.087733895 28943:0.13928489 30234:0.087733895 30820:0.087733895 31365:0.087733895 31741:0.087733895 32706:0.087733895 33394:0.087733895 33762:0.087733895 34183:0.087733895 34567:0.087733895 34626:0.19774947 35739:0.087733895 35757:0.087733895 35827:0.13928489 35938:0.13928489 36406:0.13928489 36427:0.20768638 36545:0.087733895 38259:0.13928489 39470:0.087733895 40847:0.087733895 41479:0.087733895 #
-0.73186162470437632343589484662516 1603:0.15249205 6562:0.27787164 7178:0.23829901 14951:0.15249205 18009:0.15249205 20221:0.23829901 20263:0.15249205 20587:0.15249205 21859:0.31485093 23796:0.15249205 25714:0.23829901 26408:0.23829901 26885:0.15249205 30349:0.23829901 30482:0.23829901 30820:0.15249205 32440:0.23829901 36427:0.23829901 37199:0.15249205 37658:0.15249205 37791:0.23829901 37891:0.23829901 41479:0.15249205 #
-0.99999999698600738895493122981861 527:0.19310844 910:0.1045068 1625:0.1045068 1707:0.1045068 2950:0.1045068 4984:0.16457535 4986:0.16457535 4990:0.1045068 5526:0.1045068 5686:0.1045068 6772:0.22104877 7061:0.1045068 7513:0.1045068 7733:0.1045068 8570:0.1045068 11159:0.1045068 11690:0.1045068 12194:0.1045068 12209:0.1045068 13492:0.21380082 15265:0.1045068 16011:0.1045068 18338:0.1045068 18621:0.19310844 19049:0.1045068 19070:0.1045068 19545:0.1045068 20263:0.22104877 21186:0.16457535 21440:0.1045068 22053:0.1045068 22122:0.1045068 23045:0.23836513 23285:0.1045068 23796:0.16457535 24274:0.1045068 24954:0.1045068 25527:0.1045068 25893:0.1045068 26445:0.1045068 26575:0.16457535 26599:0.1045068 26885:0.1045068 28023:0.1045068 29592:0.1045068 30234:0.16457535 30240:0.1045068 30482:0.1045068 30685:0.1045068 30820:0.1045068 32161:0.1045068 32440:0.16457535 32461:0.1045068 32779:0.1045068 33394:0.1045068 34126:0.1045068 36427:0.20998544 39624:0.1045068 41483:0.1045068 #
-0.52092305225767110421486449922668 3239:0.14674482 3342:0.14674482 5971:0.14674482 6562:0.22960845 9826:0.14674482 11654:0.14674482 13813:0.14674482 15264:0.22960845 16524:0.14674482 18009:0.22960845 18306:0.14674482 20221:0.14674482 20263:0.14674482 20587:0.14674482 21193:0.13561045 21859:0.26801479 24065:0.14674482 24428:0.14674482 25714:0.31363469 26332:0.14674482 29592:0.14674482 30349:0.14674482 30482:0.14674482 30820:0.14674482 31039:0.14674482 31242:0.14674482 32145:0.14674482 32354:0.14674482 32440:0.14674482 35705:0.14674482 36427:0.26801479 37658:0.14674482 37791:0.14674482 37805:0.14674482 #
-0.99999999698600738895493122981861 1707:0.16431428 6562:0.16431428 7178:0.32245934 9330:0.25634235 9951:0.16431428 15265:0.16431428 15786:0.32245934 16159:0.16431428 18621:0.29850039 20263:0.25634235 22936:0.16431428 25552:0.16431428 29592:0.16431428 30820:0.16431428 33998:0.16431428 34867:0.29850039 35476:0.16431428 35757:0.25634235 36427:0.25634235 37412:0.16431428 37658:0.16431428 #
-0.99999999698600738895493122981861 1603:0.093737476 1707:0.18991293 2037:0.093737476 2197:0.093737476 2285:0.093737476 5146:0.093737476 5500:0.1481078 6562:0.1481078 6772:0.093737476 8928:0.093737476 9951:0.093737476 9990:0.093737476 10742:0.093737476 11690:0.093737476 11806:0.093737476 14049:0.093737476 14122:0.093737476 14186:0.093737476 15264:0.093737476 15450:0.093737476 16011:0.093737476 16344:0.093737476 16990:0.093737476 17858:0.1481078 18306:0.18991293 18338:0.093737476 18857:0.093737476 19049:0.093737476 20221:0.1481078 20263:0.093737476 22402:0.093737476 22817:0.1481078 22879:0.1481078 23045:0.093737476 23796:0.093737476 24839:0.093737476 24971:0.093737476 25022:0.18991293 25299:0.093737476 25431:0.17425081 25616:0.093737476 26261:0.093737476 26885:0.093737476 28979:0.093737476 30349:0.21306418 30482:0.093737476 30685:0.093737476 31320:0.1481078 31701:0.093737476 31726:0.093737476 31957:0.1481078 32440:0.18991293 32779:0.1481078 33394:0.17425081 33484:0.093737476 35267:0.093737476 35476:0.093737476 36427:0.20032346 37522:0.21711971 37791:0.093737476 37927:0.17425081 39264:0.093737476 39580:0.17425081 41105:0.093737476 41440:0.093737476 41587:0.093737476 #
0.99999999698600738895493122981861 422:0.052572984 861:0.12883849 900:0.052572984 910:0.084138855 1373:0.052572984 1603:0.052572984 1625:0.052572984 1707:0.052572984 1728:0.052572984 1750:0.052572984 2034:0.10000082 2052:0.11682899 2197:0.084138855 3000:0.10000082 3174:0.052572984 3342:0.052572984 3416:0.11682899 3478:0.052572984 3774:0.052572984 3921:0.052572984 4113:0.084138855 4575:0.052572984 4697:0.052572984 5004:0.052572984 5055:0.052572984 5056:0.052572984 5500:0.11682899 5501:0.052572984 5526:0.052572984 5578:0.052572984 5686:0.052572984 5971:0.093958452 6132:0.052572984 6160:0.084138855 6443:0.052572984 6506:0.052572984 6562:0.14549181 6772:0.052572984 6781:0.07580509 6874:0.10000082 7513:0.11682899 8000:0.052572984 8293:0.052572984 8334:0.10000082 8383:0.049693763 8402:0.052572984 8570:0.084138855 8603:0.052572984 8734:0.052572984 8952:0.052572984 9019:0.052572984 9310:0.052572984 9330:0.052572984 9811:0.052572984 9858:0.052572984 10240:0.052572984 10917:0.052572984 10919:0.052572984 11746:0.084138855 11811:0.11928872 12320:0.052572984 12568:0.052572984 13502:0.093958452 13817:0.084138855 13850:0.084138855 14016:0.052572984 14152:0.052572984 14476:0.052572984 14732:0.052572984 14795:0.052572984 16240:0.052572984 16331:0.052572984 16469:0.10000082 16516:0.084138855 16523:0.084138855 16623:0.084138855 16705:0.052572984 16940:0.084138855 16980:0.052572984 17399:0.052572984 17878:0.099967808 18306:0.049693763 18616:0.052572984 18814:0.052572984 19049:0.052572984 19070:0.052572984 19117:0.14495723 19545:0.10000082 19768:0.11928872 19878:0.052572984 20088:0.10000082 20197:0.1219359 20263:0.096675463 20299:0.052572984 20482:0.052572984 20587:0.084138855 20894:0.052572984 21130:0.052572984 21193:0.052572984 21206:0.052572984 21440:0.052572984 21666:0.052572984 21870:0.052572984 21899:0.052572984 22021:0.052572984 22361:0.052572984 22402:0.084138855 22538:0.11682899 22817:0.084138855 23022:0.052572984 23045:0.10000082 23209:0.052572984 23307:0.052572984 23750:0.052572984 23796:0.084138855 24060:0.052572984 24274:0.10000082 24415:0.052572984 25022:0.052572984 25218:0.084138855 25431:0.052572984 25552:0.10000082 26241:0.11682899 26445:0.052572984 26575:0.052572984 26599:0.084138855 26787:0.12587541 26885:0.10000082 26961:0.052572984 27073:0.052572984 27247:0.052572984 27968:0.10000082 28331:0.052572984 28408:0.084138855 28474:0.052572984 28497:0.052572984 29592:0.1219359 30234:0.052572984 30240:0.052572984 30482:0.052572984 30764:0.11928872 31537:0.052572984 31741:0.084138855 31757:0.10683847 31948:0.084138855 31957:0.12938374 32161:0.11682899 32255:0.084138855 33025:0.052572984 33142:0.10992794 33172:0.052572984 33476:0.052572984 33964:0.052572984 34126:0.10000082 34935:0.084138855 35614:0.052572984 35709:0.052572984 36427:0.13364743 36545:0.052572984 36720:0.052572984 36852:0.052572984 37099:0.10992794 37119:0.12670153 37265:0.052572984 37524:0.052572984 37805:0.084138855 38056:0.10000082 38199:0.052572984 38259:0.052572984 38305:0.084138855 38391:0.052572984 38826:0.052572984 39515:0.052572984 39624:0.052572984 39769:0.052572984 40054:0.052572984 40318:0.052572984 41587:0.072346263 #
0.99999999698600738895493122981861 910:0.14790426 1625:0.078805558 2599:0.12518075 3316:0.078805558 3921:0.078805558 4118:0.078805558 4849:0.078805558 5971:0.12518075 6090:0.12518075 7308:0.078805558 7733:0.12518075 8356:0.12518075 8412:0.078805558 8688:0.078805558 9330:0.078805558 9862:0.14790426 10464:0.078805558 11711:0.078805558 11978:0.078805558 12043:0.14790426 12209:0.078805558 12228:0.12518075 13458:0.12518075 13692:0.078805558 14356:0.078805558 14476:0.12518075 15184:0.12518075 15264:0.14790426 15447:0.078805558 15786:0.12518075 16090:0.12518075 16240:0.12518075 16241:0.19462124 17045:0.078805558 17432:0.078805558 17490:0.078805558 18145:0.14790426 19249:0.078805558 19545:0.12518075 20274:0.12518075 21193:0.078805558 22485:0.12518075 22775:0.12518075 22953:0.12518075 24415:0.12518075 25476:0.078805558 26261:0.078805558 26575:0.17119317 26743:0.18308474 27968:0.078805558 28023:0.078805558 29624:0.078805558 30482:0.12518075 30688:0.12518075 31701:0.12518075 32077:0.12518075 32161:0.18702553 32706:0.078805558 32715:0.078805558 33142:0.12518075 33384:0.12518075 34126:0.14790426 35827:0.078805558 36427:0.19013143 36627:0.078805558 37791:0.078805558 37891:0.12518075 38898:0.14790426 39450:0.12518075 40506:0.12518075 40847:0.12518075 41105:0.14790426 41484:0.14790426 #
0.99999999698600738895493122981861 861:0.17346311 1395:0.11884533 2052:0.074867114 3043:0.074867114 3239:0.074867114 3416:0.11884533 4880:0.11884533 5055:0.074867114 5235:0.15344346 5440:0.1623064 5686:0.074867114 5971:0.11884533 6209:0.074867114 6562:0.11884533 7178:0.11884533 7689:0.074867114 8293:0.074867114 8383:0.11884533 9039:0.074867114 9330:0.074867114 9336:0.074867114 9990:0.074867114 11479:0.11884533 11746:0.074867114 12209:0.074867114 12312:0.11884533 13870:0.074867114 14016:0.11884533 14158:0.074867114 15264:0.074867114 15265:0.16868466 16011:0.1623064 16090:0.074867114 16345:0.074867114 16469:0.14034449 17375:0.11884533 17432:0.11884533 17490:0.074867114 17878:0.15344346 18621:0.14034449 19049:0.074867114 19117:0.11884533 19545:0.14034449 20200:0.074867114 20258:0.074867114 20263:0.16868466 20587:0.074867114 20805:0.074867114 21186:0.074867114 21909:0.17714368 22879:0.074867114 23796:0.074867114 24274:0.074867114 24278:0.074867114 25476:0.074867114 25552:0.074867114 26241:0.11884533 26332:0.074867114 26575:0.11884533 28331:0.074867114 28336:0.074867114 29592:0.11884533 29934:0.074867114 30349:0.11884533 30482:0.17346311 30528:0.074867114 30685:0.074867114 30764:0.074867114 31093:0.074867114 31213:0.074867114 31726:0.14034449 32145:0.074867114 32440:0.18935171 33172:0.070191965 33368:0.074867114 33621:0.074867114 34183:0.074867114 35614:0.11884533 35757:0.074867114 35923:0.074867114 35938:0.074867114 36194:0.074867114 36427:0.17714368 36466:0.074867114 37119:0.074867114 37522:0.11884533 37658:0.074867114 37805:0.074867114 37891:0.074867114 38178:0.074867114 38199:0.066874899 40318:0.14034449 #
0.76201964122005416690797119372291 31:0.068812363 388:0.068812363 422:0.068812363 578:0.068812363 910:0.068812363 1603:0.14216422 1707:0.150662 2197:0.10958878 2228:0.10958878 3786:0.068812363 4697:0.068812363 5085:0.068812363 5315:0.068812363 6781:0.068812363 6874:0.15685043 7513:0.10958878 7695:0.14216422 7733:0.14216422 8356:0.10958878 8361:0.068812363 8489:0.068812363 8570:0.068812363 8688:0.12974629 8717:0.14216422 9052:0.068812363 9310:0.12974629 9437:0.068812363 9862:0.10958878 11058:0.068812363 11392:0.10958878 11479:0.10958878 11508:0.068812363 11630:0.068812363 11694:0.068812363 11806:0.068812363 11978:0.15685043 12043:0.068812363 12178:0.068812363 12209:0.068812363 12498:0.068812363 13458:0.16154557 13494:0.10958878 13502:0.068812363 14165:0.10958878 14476:0.068812363 15264:0.068812363 15597:0.068812363 15786:0.10958878 16207:0.10958878 17257:0.068812363 17509:0.068812363 18060:0.068812363 18145:0.068812363 18306:0.10958878 19070:0.10958878 21130:0.068812363 21186:0.068812363 22451:0.068812363 22529:0.068812363 22785:0.10958878 22817:0.068812363 22988:0.068812363 23045:0.12974629 23518:0.068812363 23529:0.068812363 23750:0.068812363 24278:0.068812363 24415:0.068812363 24871:0.10958878 25476:0.150662 25564:0.068812363 26254:0.068812363 26261:0.068812363 26575:0.17404625 26743:0.14216422 26885:0.068812363 27534:0.068812363 28497:0.068812363 28943:0.068812363 29592:0.10958878 29603:0.10958878 30482:0.10958878 30688:0.10958878 30781:0.068812363 31626:0.068812363 31701:0.12974629 31957:0.068812363 32161:0.068812363 32461:0.068812363 32628:0.068812363 32779:0.068812363 33142:0.10958878 33312:0.10958878 33394:0.10958878 33476:0.068812363 33484:0.068812363 33935:0.068812363 34232:0.068812363 34957:0.068812363 35739:0.10958878 36016:0.068812363 36427:0.17886661 37600:0.10958878 37891:0.068812363 37926:0.068812363 38915:0.068812363 39059:0.12974629 40572:0.068812363 41105:0.068812363 41355:0.068812363 41484:0.12974629 #
0.76891529778668654682149963264237 132:0.081420898 308:0.081420898 1080:0.081420898 1595:0.081420898 1603:0.12919572 2540:0.081420898 3342:0.081420898 3381:0.081420898 5500:0.15251736 5894:0.081420898 6562:0.12919572 6713:0.081420898 7440:0.12919572 7695:0.081420898 7733:0.081420898 8356:0.081420898 8489:0.081420898 9436:0.12919572 9865:0.081420898 9952:0.081420898 10057:0.081420898 11479:0.15251736 11690:0.17629237 11847:0.081420898 12579:0.081420898 13458:0.12919572 13502:0.081420898 13850:0.12919572 14021:0.081420898 14152:0.081420898 14476:0.081420898 14758:0.081420898 14951:0.081420898 15265:0.081420898 15786:0.12919572 16011:0.081420898 16241:0.081420898 16420:0.12919572 16469:0.081420898 16505:0.081420898 16990:0.081420898 17030:0.081420898 17399:0.081420898 17799:0.081420898 17878:0.12919572 18113:0.081420898 18306:0.076305076 19092:0.081420898 19364:0.12919572 19878:0.081420898 20771:0.081420898 22039:0.081420898 22402:0.15251736 22936:0.081420898 24278:0.12919572 24535:0.081420898 25022:0.081420898 25510:0.081420898 26241:0.081420898 26261:0.16670628 26343:0.081420898 26570:0.12919572 26575:0.18318011 26787:0.081420898 28531:0.081420898 29010:0.081420898 29592:0.081420898 30357:0.081420898 30482:0.15251736 30688:0.081420898 30820:0.081420898 31260:0.081420898 31320:0.081420898 31365:0.081420898 31701:0.081420898 31726:0.12919572 32161:0.17629237 32779:0.081420898 33394:0.081420898 33935:0.081420898 34232:0.12919572 35709:0.081420898 35739:0.081420898 36194:0.081420898 36427:0.19984369 36852:0.081420898 37449:0.081420898 37522:0.12919572 37739:0.081420898 37791:0.081420898 38305:0.081420898 38898:0.15251736 38915:0.081420898 39580:0.081420898 41017:0.081420898 41446:0.081420898 #
-0.99999999698600738895493122981861 528:0.077742621 1080:0.18060105 1603:0.077742621 1707:0.1234899 2197:0.1688741 2411:0.077742621 3290:0.077742621 3342:0.077742621 3381:0.077742621 3592:0.077742621 3665:0.077742621 4998:0.077742621 5500:0.077742621 6090:0.077742621 6254:0.077742621 6562:0.077742621 6874:0.14590424 7178:0.077742621 7440:0.077742621 7733:0.1688741 8263:0.077742621 8293:0.077742621 9310:0.1234899 9952:0.077742621 9990:0.077742621 11047:0.077742621 11508:0.077742621 11690:0.077742621 11711:0.077742621 13049:0.077742621 13220:0.077742621 13398:0.077742621 13692:0.077742621 13850:0.077742621 15184:0.077742621 15235:0.1234899 15786:0.077742621 16331:0.077742621 16469:0.077742621 17030:0.077742621 17152:0.077742621 17432:0.077742621 17779:0.077742621 18006:0.077742621 19117:0.1688741 19782:0.077742621 19973:0.077742621 20170:0.077742621 20197:0.1688741 20263:0.14590424 20771:0.077742621 20819:0.077742621 21130:0.077742621 21870:0.077742621 22519:0.14590424 23272:0.077742621 23734:0.077742621 23796:0.077742621 23817:0.14590424 24060:0.1234899 24217:0.077742621 24250:0.077742621 24644:0.077742621 25218:0.077742621 25431:0.077742621 25510:0.077742621 25552:0.077742621 25616:0.077742621 26107:0.077742621 26570:0.077742621 26575:0.077742621 26599:0.14590424 26787:0.1688741 26885:0.077742621 27080:0.077742621 27374:0.077742621 27534:0.077742621 27706:0.077742621 28957:0.077742621 30627:0.14590424 30820:0.1234899 31260:0.077742621 31365:0.077742621 31440:0.077742621 31701:0.077742621 31710:0.077742621 32161:0.14590424 32255:0.077742621 32767:0.077742621 33172:0.077742621 34077:0.077742621 34126:0.077742621 34895:0.077742621 35434:0.077742621 35739:0.1234899 35923:0.077742621 36078:0.077742621 36427:0.19685008 36779:0.077742621 36946:0.1234899 37159:0.15959154 37522:0.077742621 38199:0.1234899 38915:0.077742621 #
-0.19654042951785161141842195320351 132:0.087121174 1080:0.16278306 1183:0.087121174 1595:0.087121174 1603:0.087121174 1750:0.087121174 2411:0.087121174 2540:0.13804625 3592:0.087121174 4953:0.087121174 5526:0.087121174 5578:0.087121174 5585:0.087121174 6090:0.087121174 6160:0.087121174 6562:0.13804625 6772:0.087121174 6874:0.087121174 7086:0.087121174 7440:0.087121174 7733:0.13804625 8293:0.087121174 8356:0.13804625 8570:0.087121174 8734:0.087121174 11351:0.087121174 11746:0.13804625 11806:0.087121174 11811:0.087121174 13049:0.17775804 13398:0.087121174 13692:0.087121174 13850:0.087121174 14021:0.087121174 14795:0.087121174 15597:0.087121174 16469:0.087121174 17618:0.087121174 18358:0.087121174 19117:0.13804625 19354:0.16278306 20197:0.087121174 20771:0.087121174 20881:0.087121174 22361:0.087121174 22879:0.087121174 23022:0.087121174 23045:0.087121174 23409:0.17775804 23817:0.16278306 24535:0.13804625 25616:0.087121174 26787:0.1717611 27534:0.13804625 28474:0.13804625 29592:0.087121174 30234:0.087121174 30820:0.13804625 31039:0.087121174 31365:0.087121174 31440:0.18782255 31701:0.087121174 31705:0.087121174 31710:0.13804625 32161:0.081532337 32255:0.16278306 32628:0.087121174 33172:0.087121174 33394:0.087121174 34126:0.087121174 34232:0.13804625 35739:0.13804625 35757:0.13804625 36427:0.2076184 36766:0.087121174 37159:0.15632823 37269:0.087121174 37524:0.087121174 37805:0.087121174 38199:0.087121174 38668:0.087121174 #
-0.61885731421692702358683391139493 417:0.10915319 659:0.10915319 2197:0.10915319 3381:0.10915319 3786:0.10915319 5268:0.10915319 6772:0.10144354 8317:0.24806184 8356:0.17175885 8489:0.10915319 8717:0.17175885 9039:0.10915319 9052:0.10915319 9437:0.10915319 10152:0.10915319 10819:0.10915319 11058:0.10915319 11462:0.17175885 12194:0.10915319 12228:0.23031893 14235:0.10915319 15235:0.10915319 15264:0.10915319 16186:0.10915319 17878:0.10915319 18009:0.10915319 18347:0.10915319 19370:0.17175885 20726:0.10915319 23518:0.10915319 24499:0.10915319 26169:0.10915319 26223:0.10915319 27080:0.10915319 28408:0.10915319 29237:0.21889605 29360:0.10915319 30505:0.10915319 31365:0.10915319 31701:0.10915319 32161:0.10915319 32628:0.10915319 33476:0.10915319 35719:0.17175885 35739:0.10915319 35827:0.10915319 36136:0.10915319 36411:0.20141108 36427:0.23822848 36766:0.10915319 36851:0.10915319 37199:0.17175885 37449:0.20141108 37891:0.10915319 38366:0.10915319 39580:0.10915319 #
-0.99999999698600738895493122981861 132:0.090821199 189:0.056891311 598:0.090821199 910:0.090821199 1373:0.090821199 1603:0.13078608 1707:0.10773006 2197:0.090821199 2950:0.056891311 3342:0.056891311 3441:0.056891311 3921:0.090821199 4546:0.056891311 4990:0.056891311 5500:0.12546986 5534:0.056891311 5578:0.10773006 5686:0.13485372 6132:0.056891311 6506:0.056891311 6512:0.056891311 6562:0.090821199 6772:0.090821199 6781:0.090821199 6971:0.056891311 7513:0.056891311 7514:0.056891311 7683:0.056891311 7733:0.10773006 7766:0.090821199 8293:0.056891311 8307:0.056891311 8356:0.056891311 8489:0.090821199 8658:0.056891311 8688:0.056891311 8707:0.056891311 8717:0.090821199 9091:0.053640462 9158:0.056891311 9437:0.056891311 9990:0.053640462 10240:0.056891311 10523:0.056891311 10832:0.056891311 10964:0.056891311 11058:0.10773006 11355:0.056891311 11687:0.056891311 11746:0.090821199 11811:0.12546986 11847:0.10773006 12098:0.090821199 12147:0.056891311 12178:0.10773006 13692:0.056891311 13817:0.090821199 13850:0.056891311 14366:0.056891311 14795:0.056891311 15299:0.056891311 15320:0.056891311 15436:0.10773006 15786:0.056891311 16344:0.056891311 16420:0.056891311 16469:0.090821199 17432:0.056891311 17571:0.056891311 17878:0.090821199 17957:0.056891311 18060:0.056891311 18263:0.056891311 18814:0.056891311 18857:0.056891311 19049:0.13485372 19070:0.056891311 19117:0.12546986 19249:0.056891311 19282:0.056891311 19878:0.13078608 20098:0.056891311 20170:0.090821199 20258:0.10773006 20263:0.053640462 20692:0.056891311 21130:0.056891311 21376:0.056891311 21859:0.090821199 22021:0.056891311 22353:0.056891311 22402:0.056891311 22538:0.090821199 22542:0.056891311 22879:0.10397549 23022:0.056891311 23045:0.11822867 23734:0.056891311 23750:0.056891311 23796:0.056891311 24337:0.056891311 24535:0.090821199 24661:0.056891311 25022:0.056891311 25431:0.090821199 25632:0.056891311 25704:0.056891311 26109:0.056891311 26241:0.090821199 26263:0.056891311 26343:0.090821199 26599:0.11822867 26787:0.1380583 26885:0.056891311 27079:0.056891311 27136:0.090821199 27235:0.056891311 27574:0.056891311 27588:0.090821199 27915:0.090821199 28289:0.056891311 28331:0.056891311 28436:0.056891311 28474:0.056891311 29232:0.056891311 29651:0.056891311 30349:0.090821199 30357:0.056891311 30482:0.10773006 30504:0.056891311 30820:0.11822867 31719:0.056891311 31726:0.056891311 31957:0.10773006 32440:0.056891311 32759:0.056891311 32779:0.056891311 32977:0.056891311 33616:0.056891311 33771:0.10773006 34126:0.1380583 34567:0.056891311 35640:0.090821199 35739:0.10773006 36427:0.1498969 36466:0.090821199 36766:0.056891311 36779:0.056891311 37099:0.056891311 37522:0.090821199 37658:0.090821199 37736:0.056891311 38259:0.056891311 39059:0.090821199 39368:0.056891311 39580:0.13485372 39744:0.056891311 39893:0.056891311 40318:0.090821199 41446:0.056891311 41578:0.10773006 #
-0.99999999698600738895493122981861 388:0.17579813 863:0.17579813 1715:0.2734161 3786:0.2734161 6700:0.17579813 11017:0.17579813 11823:0.17579813 16818:0.2734161 16990:0.17579813 19070:0.17579813 22402:0.17579813 22817:0.16148396 23329:0.17579813 23796:0.17579813 26241:0.17579813 30482:0.17579813 31260:0.17579813 31320:0.2734161 32255:0.17579813 33172:0.17579813 36427:0.2734161 37522:0.2734161 37927:0.17579813 38433:0.17579813 #
0.99999999698600738895493122981861 910:0.06924507 1603:0.073696978 1707:0.13868971 1951:0.15185502 2540:0.073696978 4546:0.073696978 4628:0.073696978 4880:0.15185502 5500:0.073696978 6213:0.073696978 6506:0.073696978 6562:0.13868971 7608:0.073696978 7733:0.073696978 8103:0.073696978 8293:0.11724209 8688:0.073696978 8734:0.073696978 9124:0.073696978 9437:0.073696978 9990:0.11724209 10057:0.073696978 10341:0.073696978 11434:0.073696978 11617:0.073696978 11690:0.13868971 11806:0.16083136 11811:0.073696978 11847:0.073696978 12610:0.073696978 13580:0.073696978 13584:0.073696978 13966:0.073696978 14951:0.073696978 15074:0.11724209 15264:0.16083136 15265:0.073696978 15320:0.073696978 15786:0.13868971 16011:0.073696978 16990:0.073696978 17432:0.073696978 18060:0.073696978 18621:0.11724209 18683:0.073696978 18800:0.073696978 18857:0.073696978 19049:0.073696978 19364:0.073696978 19545:0.073696978 20025:0.073696978 20136:0.073696978 20263:0.13868971 20299:0.11189399 20692:0.11724209 20819:0.073696978 21186:0.13868971 21909:0.11724209 22299:0.073696978 22402:0.073696978 22936:0.073696978 23022:0.073696978 23285:0.073696978 23329:0.11724209 23796:0.11724209 23861:0.073696978 25893:0.073696978 26575:0.11724209 26754:0.073696978 26885:0.11724209 27016:0.073696978 28474:0.073696978 28665:0.073696978 29232:0.073696978 29301:0.073696978 29592:0.073696978 30349:0.16734351 30482:0.16734351 30685:0.073696978 30820:0.073696978 31093:0.073696978 31242:0.073696978 31260:0.073696978 31545:0.073696978 31701:0.073696978 31710:0.073696978 32061:0.073696978 32161:0.11724209 32255:0.073696978 32440:0.11724209 33998:0.11724209 34126:0.073696978 35476:0.073696978 35757:0.15185502 36194:0.073696978 36427:0.18356757 37199:0.073696978 37265:0.073696978 37522:0.17609042 37658:0.11724209 37791:0.16083136 37891:0.073696978 38898:0.073696978 39040:0.073696978 39463:0.073696978 39580:0.073696978 41520:0.073696978 #
0.99999999698600738895493122981861 422:0.097791724 910:0.097791724 1603:0.097791724 1707:0.097791724 2540:0.097791724 3043:0.15467554 3342:0.097791724 3381:0.15467554 3921:0.097791724 5500:0.15467554 6506:0.15467554 6713:0.097791724 7178:0.15467554 7733:0.15467554 8113:0.097791724 10523:0.097791724 11047:0.097791724 11479:0.097791724 11690:0.18213044 14152:0.097791724 14165:0.15467554 15265:0.15467554 15450:0.097791724 15786:0.097791724 17878:0.097791724 18009:0.15467554 18306:0.097791724 18621:0.15467554 20263:0.18213044 22361:0.097791724 22519:0.097791724 23796:0.097791724 25552:0.097791724 25893:0.097791724 26261:0.15467554 26343:0.15467554 26570:0.097791724 26575:0.097791724 28023:0.097791724 28603:0.097791724 30349:0.18213044 30482:0.18213044 31213:0.097791724 31537:0.097791724 32266:0.097791724 32440:0.15467554 33394:0.097791724 33484:0.097791724 33771:0.15467554 34151:0.097791724 35640:0.097791724 35709:0.097791724 35757:0.097791724 35938:0.097791724 36427:0.1986426 36794:0.21748005 36852:0.097791724 37702:0.097791724 37791:0.097791724 37891:0.097791724 37927:0.20966382 38259:0.097791724 41446:0.097791724 #
0.77910325189685070146339285201975 132:0.14403392 1603:0.14403392 6562:0.14403392 7178:0.14403392 7440:0.14403392 7733:0.14403392 11462:0.14403392 11479:0.22635217 18306:0.22635217 19364:0.14403392 20221:0.14403392 24217:0.14403392 25893:0.14403392 26343:0.14403392 26408:0.14403392 26575:0.14403392 26638:0.22635217 27080:0.14403392 27534:0.14403392 28907:0.14403392 30349:0.28791109 30685:0.22635217 30688:0.14403392 30820:0.14403392 31320:0.22635217 33394:0.14403392 34232:0.14403392 35705:0.14403392 36427:0.26515159 37600:0.14403392 37805:0.14403392 37927:0.22635217 38630:0.14403392 41479:0.14403392 #
0.47942333019225708001798125224013 417:0.18265039 1707:0.116233 1750:0.116233 2228:0.116233 3342:0.116233 3665:0.18265039 4871:0.18265039 4957:0.116233 5232:0.116233 5729:0.116233 5971:0.116233 6133:0.116233 7733:0.116233 9039:0.116233 9052:0.116233 10996:0.116233 11047:0.116233 11159:0.116233 11690:0.18265039 11705:0.116233 12209:0.116233 15264:0.18265039 16623:0.116233 17399:0.116233 17878:0.116233 19782:0.116233 20263:0.24421814 22079:0.21394736 22879:0.116233 25552:0.116233 26254:0.18265039 26445:0.116233 26575:0.26556811 29592:0.116233 30357:0.116233 32268:0.116233 32440:0.25241202 33368:0.116233 33616:0.23230103 33944:0.116233 36136:0.116233 36427:0.18265039 36466:0.116233 37199:0.116233 37976:0.116233 39660:0.116233 39898:0.116233 #
0.99999999698600738895493122981861 1355:0.24381499 3290:0.1563459 5146:0.1563459 5585:0.1563459 6562:0.28382108 7390:0.1563459 9990:0.1563459 10057:0.24381499 11058:0.28382108 16524:0.1563459 17314:0.1563459 17432:0.24381499 18306:0.1563459 18339:0.24381499 22936:0.24381499 25618:0.1563459 26575:0.1563459 27896:0.24381499 30820:0.1563459 31726:0.1563459 32577:0.1563459 33998:0.28382108 36427:0.24381499 36784:0.1563459 #
-0.045321522975248829112615567282774 8447:0.42902654 15265:0.49477538 18306:0.27823365 32440:0.42902654 33025:0.27823365 33368:0.27823365 33979:0.27823365 37982:0.27823365 #
-0.26414940489887628327636548419832 910:0.26112574 5532:0.26112574 8447:0.40212065 15265:0.46323812 18306:0.26112574 33025:0.26112574 33368:0.26112574 33830:0.46323812 33979:0.26112574 #
-0.19064247893218913554314042357873 861:0.26550853 1527:0.19980289 1707:0.12751682 3342:0.19980289 4984:0.19980289 4986:0.12751682 5440:0.12751682 5971:0.23349021 6562:0.12751682 7178:0.12751682 7308:0.12751682 7440:0.12751682 11746:0.12751682 14476:0.12751682 14665:0.19980289 16155:0.12751682 16940:0.12751682 17432:0.19980289 17878:0.19980289 19049:0.12751682 19902:0.12751682 20263:0.26550853 21186:0.12751682 22220:0.12751682 22817:0.12751682 22879:0.12751682 24109:0.12751682 26109:0.12751682 29592:0.19980289 30482:0.25300828 31093:0.12751682 31365:0.12751682 32628:0.12751682 33025:0.12751682 35938:0.12751682 36427:0.23349021 36466:0.12751682 #
-0.99999999698600738895493122981861 70:0.25801209 602:0.11953995 1485:0.11953995 1595:0.11953995 2037:0.11953995 2052:0.11953995 3342:0.11953995 5146:0.11953995 6874:0.11953995 7178:0.11953995 7733:0.11953995 9826:0.11953995 9862:0.11953995 11690:0.23792161 11806:0.18753658 11847:0.11953995 12312:0.27079722 14165:0.11953995 16155:0.11953995 16922:0.11953995 17432:0.11953995 18306:0.11953995 19080:0.11953995 20263:0.11953995 22079:0.18753658 22936:0.11953995 23022:0.11953995 23272:0.11953995 23796:0.11953995 24337:0.11953995 25022:0.11953995 25721:0.18753658 27786:0.11953995 28907:0.11953995 30627:0.11953995 30685:0.11953995 31701:0.18753658 31726:0.11953995 32145:0.18753658 32440:0.18753658 32779:0.11953995 33394:0.11953995 34935:0.11953995 35739:0.11953995 36427:0.11953995 36723:0.18753658 36766:0.11953995 37976:0.11953995 39730:0.11953995 #
-0.10035524925023697750958717733738 689:0.11769058 2197:0.11769058 2540:0.18524568 2791:0.11769058 3416:0.11769058 3592:0.21727619 4270:0.11769058 8263:0.11769058 8356:0.11769058 8489:0.11769058 9436:0.11769058 9996:0.11769058 10761:0.11769058 10817:0.11769058 11058:0.18524568 11351:0.11769058 11462:0.18524568 11628:0.11769058 12568:0.11769058 12780:0.11769058 14165:0.11769058 15894:0.11769058 16523:0.18524568 16922:0.11769058 17686:0.11769058 18480:0.11769058 21193:0.11769058 21440:0.11769058 22361:0.11769058 23022:0.23618498 24644:0.11769058 25322:0.11769058 25431:0.11769058 26109:0.11769058 28348:0.11769058 28408:0.11769058 28957:0.11769058 30627:0.11769058 30688:0.21727619 31093:0.11769058 32161:0.23618498 34126:0.11769058 34151:0.18524568 34626:0.18524568 35739:0.11769058 36108:0.11769058 36427:0.24855359 36545:0.11769058 41188:0.11769058 #
0.99999999698600738895493122981861 689:0.079886109 1272:0.079886109 1595:0.079886109 1707:0.079886109 2052:0.079886109 3342:0.17946182 3786:0.1267083 5526:0.079886109 5532:0.079886109 5578:0.1267083 6562:0.18447152 7178:0.079886109 8361:0.1267083 8717:0.079886109 9310:0.1267083 9330:0.14953205 9990:0.079886109 9996:0.079886109 11040:0.079886109 11690:0.079886109 11806:0.1267083 12178:0.17275175 13049:0.079886109 14016:0.079886109 14021:0.1267083 14245:0.16339798 15298:0.079886109 15933:0.079886109 16705:0.079886109 16990:0.079886109 17432:0.1267083 17878:0.079886109 18857:0.079886109 19112:0.079886109 20263:0.16339798 21666:0.079886109 22220:0.079886109 22936:0.14953205 23022:0.17275175 23272:0.079886109 23796:0.079886109 24109:0.079886109 24274:0.079886109 24340:0.14953205 24839:0.079886109 25431:0.1267083 25737:0.1267083 26575:0.19132267 26885:0.079886109 26961:0.079886109 27141:0.079886109 27534:0.079886109 27574:0.079886109 28050:0.079886109 28338:0.079886109 28408:0.14953205 29592:0.079886109 30234:0.079886109 30349:0.1267083 30371:0.18831562 31320:0.1267083 31618:0.14953205 31726:0.18831562 32161:0.079886109 32255:0.1267083 33549:0.079886109 34126:0.17275175 34151:0.079886109 34408:0.079886109 35467:0.079886109 35827:0.079886109 36114:0.079886109 36427:0.18447152 36466:0.1267083 37522:0.1267083 37652:0.079886109 39660:0.079886109 40961:0.079886109 41587:0.079886109 #
0.99999999698600738895493122981861 1707:0.1879728 5146:0.33632067 8717:0.1879728 14214:0.1879728 15264:0.29081672 18338:0.29081672 19531:0.36113372 21398:0.1879728 22003:0.1879728 24337:0.1879728 26575:0.1879728 28655:0.1879728 28907:0.29081672 32779:0.1879728 33394:0.1879728 35331:0.1879728 35739:0.17176104 36427:0.29081672 #
0.19746325226204225478099374413432 132:0.094840206 528:0.094840206 958:0.094840206 1355:0.094840206 1477:0.15003642 1595:0.15003642 1603:0.094840206 1707:0.17669544 2197:0.15003642 3592:0.094840206 5585:0.094840206 8317:0.15003642 8367:0.094840206 8570:0.094840206 8645:0.19274041 9862:0.15003642 9865:0.094840206 10841:0.15003642 10913:0.094840206 11058:0.094840206 11479:0.094840206 11508:0.15003642 11690:0.19274041 12195:0.094840206 12228:0.15003642 15298:0.094840206 16584:0.17669544 17311:0.094840206 17399:0.15003642 17877:0.15003642 18306:0.094840206 20263:0.20658451 20299:0.094840206 21130:0.094840206 23796:0.15003642 24181:0.15003642 25022:0.15003642 25431:0.17669544 26241:0.094840206 26575:0.19274041 26885:0.094840206 27374:0.094840206 28408:0.15003642 28943:0.094840206 29603:0.19274041 30251:0.094840206 30685:0.094840206 32440:0.15003642 32779:0.094840206 33394:0.15003642 34077:0.094840206 34126:0.094840206 35640:0.15003642 36427:0.21106519 36466:0.094840206 37805:0.094840206 40100:0.094840206 41587:0.094840206 #
0.66057783711950202043539093210711 132:0.06802664 422:0.06802664 689:0.10826631 861:0.06802664 910:0.10826631 1080:0.06802664 1603:0.06802664 1625:0.14864457 1848:0.10826631 2052:0.10826631 2197:0.06802664 3342:0.061047025 3441:0.06802664 3592:0.06802664 4880:0.06802664 5686:0.10826631 6772:0.06802664 6874:0.06802664 7938:0.06802664 8000:0.06802664 8293:0.06802664 8334:0.10826631 8356:0.06802664 8383:0.06802664 8578:0.10826631 8663:0.06802664 9039:0.06802664 9113:0.10826631 9310:0.06802664 9330:0.06802664 9862:0.12811403 9865:0.06802664 9990:0.06802664 10009:0.06802664 10832:0.10826631 10913:0.14864457 11300:0.10826631 11806:0.06802664 12178:0.06802664 13179:0.12811403 14245:0.10826631 14459:0.10826631 14663:0.06802664 14758:0.06802664 15184:0.06802664 15264:0.10826631 16241:0.14864457 16623:0.06802664 16980:0.06802664 16990:0.10826631 19354:0.06802664 19370:0.06802664 19636:0.06802664 20137:0.12811403 20263:0.06802664 20989:0.06802664 21191:0.15578385 21420:0.06802664 21440:0.14031433 21481:0.06802664 22079:0.14031433 22879:0.10826631 22940:0.06802664 23393:0.06802664 23796:0.17138287 24171:0.06802664 24181:0.10826631 24337:0.10826631 25552:0.12811403 26241:0.06802664 26343:0.06802664 26575:0.16797197 26885:0.06802664 27534:0.06802664 28474:0.06802664 28770:0.06802664 28945:0.10826631 29232:0.06802664 29592:0.14031433 30482:0.1656817 30627:0.06802664 30688:0.06802664 30820:0.10826631 30827:0.06802664 31242:0.12811403 31440:0.12811403 31533:0.06802664 31719:0.06802664 31726:0.06802664 32161:0.12811403 32399:0.06802664 32440:0.14864457 34126:0.15469697 35065:0.06802664 35757:0.06802664 35827:0.06802664 35938:0.06802664 36194:0.06802664 36290:0.06802664 36427:0.17372009 36764:0.06802664 36841:0.12811403 38305:0.10826631 39898:0.06802664 40184:0.12811403 41105:0.06802664 41450:0.10826631 #
0.681630541249391930236356529349 4880:0.33876675 8356:0.18107781 11978:0.18107781 14951:0.18107781 16011:0.18107781 16165:0.3282218 20088:0.18107781 20805:0.28214923 23796:0.3282218 26575:0.18107781 30407:0.3282218 36290:0.28214923 36427:0.18107781 39777:0.18107781 41479:0.3282218 41587:0.18107781 #
-0.83882141051615566329502371445415 608:0.14744793 689:0.14744793 1603:0.14744793 1715:0.30150762 6562:0.22971524 11617:0.14744793 13458:0.14744793 14152:0.14744793 16344:0.14744793 16505:0.28835869 17490:0.22971524 19364:0.14744793 20572:0.22971524 20805:0.14744793 23307:0.14744793 23750:0.14744793 24278:0.14744793 26654:0.22971524 28270:0.14744793 30349:0.14744793 32779:0.22971524 33394:0.14744793 33935:0.14744793 33998:0.14744793 35757:0.22971524 36427:0.14744793 37522:0.14744793 37658:0.14744793 37791:0.22971524 37891:0.14744793 #
-0.980159888206548202127521562943 4880:0.17538597 6562:0.17538597 14165:0.17538597 15264:0.17538597 17432:0.17538597 17571:0.17538597 19117:0.17538597 21909:0.2739504 25893:0.17538597 26241:0.2739504 27534:0.17538597 28336:0.17538597 29592:0.17538597 30349:0.17538597 32440:0.2739504 33935:0.17538597 33998:0.17538597 36194:0.17538597 36427:0.3193244 37522:0.34525535 37658:0.17538597 37791:0.17538597 37805:0.17538597 #
-0.43711091263234896908684845584503 17900:0.5 18306:0.5 26261:0.5 36427:0.5 #
-0.64468160704020405216141398341279 1183:0.10897033 2089:0.17151995 4228:0.10897033 5440:0.10897033 6562:0.10897033 6772:0.10897033 7178:0.17151995 7733:0.10897033 8356:0.10897033 8957:0.10897033 9951:0.17151995 11058:0.10897033 11847:0.10897033 12178:0.10897033 13049:0.10897033 13870:0.10897033 14166:0.10897033 14795:0.10897033 15264:0.10897033 15265:0.10897033 15298:0.10897033 15920:0.10897033 16011:0.10897033 16890:0.10897033 17878:0.10897033 19282:0.17151995 19364:0.10897033 20263:0.10897033 22402:0.10897033 24060:0.10897033 24277:0.10897033 25218:0.10897033 25893:0.10897033 26241:0.17151995 26261:0.10897033 28023:0.10897033 28943:0.10897033 29232:0.10897033 29801:0.10897033 30349:0.10897033 30482:0.20117716 31320:0.10897033 31427:0.10897033 31701:0.10897033 32161:0.10897033 32440:0.20117716 33935:0.10897033 34126:0.10897033 34232:0.10897033 34544:0.10897033 35757:0.10897033 35938:0.10897033 36427:0.21868493 37522:0.21868493 37702:0.10897033 37791:0.17151995 37805:0.10897033 37891:0.10897033 37927:0.10897033 38517:0.10897033 39580:0.17151995 41479:0.10897033 41587:0.10897033 #
-0.41332099774263808544816356516094 1477:0.22297034 4921:0.22297034 6090:0.22297034 8092:0.34336323 9363:0.22297034 9883:0.22297034 14122:0.22297034 23796:0.22297034 24028:0.34336323 29603:0.22297034 29623:0.22297034 30482:0.22297034 31726:0.22297034 36427:0.34336323 38672:0.22297034 41311:0.22297034 #
0.60007540188273100767446521786042 1707:0.30339023 5524:0.1862417 8092:0.11712679 9039:0.11712679 11168:0.11712679 14544:0.11712679 16180:0.1862417 18302:0.11712679 19070:0.11712679 20587:0.24105226 22402:0.29347858 22879:0.30339023 24028:0.11712679 25491:0.24105226 26241:0.1862417 26575:0.11712679 28354:0.11712679 28877:0.24105226 29438:0.1862417 30627:0.29093325 31710:0.11712679 32440:0.24105226 34600:0.11712679 37976:0.1862417 38433:0.11712679 39758:0.27323627 #
0.99999999698600738895493122981861 528:0.12846094 861:0.12846094 910:0.12846094 1353:0.12846094 3174:0.12846094 3342:0.12846094 5500:0.12846094 5971:0.12846094 6562:0.2358471 8168:0.12846094 10841:0.12846094 11276:0.12846094 11630:0.12846094 12167:0.12846094 12228:0.12846094 12291:0.12846094 14562:0.12846094 15264:0.12846094 15265:0.12846094 16331:0.12846094 17550:0.12846094 18060:0.12846094 18306:0.12846094 18743:0.12846094 19117:0.12846094 20221:0.12846094 21186:0.12846094 21738:0.20157866 22451:0.12846094 22817:0.12846094 22936:0.12846094 25218:0.25582573 26575:0.12846094 29628:0.25582573 30820:0.20157866 31726:0.12846094 32440:0.12846094 33998:0.12846094 36427:0.2358471 36721:0.12846094 36766:0.12846094 37199:0.12846094 37736:0.12846094 38305:0.12846094 38961:0.12846094 39547:0.12846094 40522:0.12846094 #
0.99999999698600738895493122981861 528:0.18113641 1707:0.18113641 5500:0.18113641 6475:0.28127015 9826:0.18113641 11823:0.18113641 16090:0.18113641 18306:0.18113641 18621:0.28127015 19070:0.18113641 19080:0.18113641 19364:0.18113641 23611:0.18113641 23796:0.18113641 24363:0.18113641 26575:0.18113641 28330:0.18113641 30349:0.18113641 30820:0.18113641 32440:0.18113641 36427:0.28127015 37658:0.18113641 37976:0.18113641 38366:0.3262718 #
0.80118754741134534658186794331414 6506:0.24832195 10832:0.15917325 11047:0.24832195 11690:0.15917325 16240:0.15917325 18621:0.24832195 19049:0.15917325 19117:0.15917325 20263:0.15917325 20587:0.15917325 21186:0.15917325 21193:0.15917325 24661:0.15917325 25218:0.15917325 25893:0.15917325 26575:0.28916097 27136:0.15917325 29232:0.15917325 30593:0.15917325 31093:0.15917325 31726:0.15917325 32161:0.15917325 32440:0.24832195 33935:0.15917325 34126:0.15917325 34951:0.15917325 36194:0.15917325 36427:0.15917325 36779:0.24832195 37658:0.15917325 #
0.99999999698600738895493122981861 417:0.066813402 910:0.10636657 1355:0.066813402 1373:0.066813402 1595:0.10636657 1603:0.10636657 2599:0.066813402 2648:0.066813402 3342:0.066813402 3381:0.10636657 3592:0.066813402 5111:0.066813402 5315:0.066813402 5500:0.066813402 5532:0.066813402 5894:0.066813402 6506:0.066813402 6562:0.10636657 6772:0.13791113 6781:0.066813402 6874:0.10636657 7308:0.066813402 7440:0.066813402 7513:0.066813402 8434:0.066813402 8650:0.066813402 9052:0.066813402 9158:0.066813402 9208:0.066813402 9545:0.066813402 9862:0.10636657 9865:0.066813402 10832:0.066813402 11058:0.066813402 11159:0.066813402 11479:0.066813402 11508:0.066813402 11806:0.1258952 11846:0.066813402 11847:0.13791113 12167:0.10636657 12228:0.066813402 12312:0.10636657 12780:0.066813402 13301:0.066813402 13850:0.1258952 14951:0.066813402 15786:0.15209678 16090:0.066813402 16113:0.066813402 16494:0.066813402 16508:0.066813402 16516:0.066813402 16818:0.066813402 17399:0.066813402 17878:0.10636657 18306:0.10636657 18857:0.13791113 19114:0.066813402 19713:0.066813402 20088:0.066813402 20137:0.066813402 20197:0.066813402 20200:0.10636657 20258:0.066813402 20263:0.10636657 20692:0.066813402 20881:0.066813402 21193:0.066813402 21545:0.066813402 21870:0.10636657 22879:0.066813402 22936:0.10636657 23274:0.066813402 23796:0.066813402 24028:0.066813402 24109:0.1258952 24274:0.10636657 24644:0.066813402 25022:0.066813402 25218:0.066813402 25893:0.066813402 26109:0.066813402 26332:0.10636657 26445:0.10636657 26575:0.1258952 26801:0.066813402 26885:0.10636657 27080:0.066813402 27247:0.066813402 27574:0.1258952 27896:0.066813402 27915:0.066813402 28957:0.066813402 29360:0.066813402 29592:0.066813402 30482:0.14612369 30627:0.10636657 30685:0.066813402 31158:0.066813402 31320:0.10636657 31366:0.066813402 31440:0.10636657 31460:0.066813402 31741:0.066813402 31945:0.066813402 32077:0.14612369 32161:0.17447509 32440:0.066813402 32779:0.066813402 33142:0.066813402 33172:0.066813402 33312:0.066813402 33368:0.066813402 33394:0.10636657 33515:0.066813402 33616:0.066813402 33621:0.10636657 34007:0.066813402 34126:0.066813402 34690:0.066813402 34917:0.066813402 35739:0.12128511 35938:0.066813402 36427:0.16708973 36466:0.066813402 37799:0.066813402 37976:0.066813402 38366:0.066813402 39038:0.066813402 39040:0.066813402 39133:0.066813402 39777:0.066813402 39898:0.066813402 40001:0.066813402 40364:0.10636657 40506:0.066813402 40658:0.066813402 #
-0.71351299768828591041369691083673 1080:0.12428543 1707:0.12428543 3158:0.12428543 4963:0.12428543 7608:0.12428543 7733:0.12428543 8293:0.12428543 8356:0.11552683 8717:0.19560392 10832:0.19560392 14785:0.22940455 15320:0.12428543 16011:0.12428543 16241:0.22940455 16818:0.12428543 16990:0.19560392 17314:0.12428543 20587:0.12428543 20771:0.22940455 21440:0.12428543 22936:0.19560392 22953:0.12428543 23329:0.19560392 25766:0.19560392 28023:0.12428543 28270:0.12428543 29301:0.12428543 30627:0.22940455 30820:0.19560392 31705:0.12428543 31726:0.19560392 33889:0.12428543 36090:0.12428543 36427:0.19560392 37265:0.12428543 39751:0.19560392 39758:0.12428543 39990:0.19560392 40847:0.12428543 #
-0.85268458306373540178668690714403 132:0.11933735 422:0.075125493 910:0.075125493 986:0.075125493 1457:0.075125493 1603:0.075125493 1707:0.11933735 2052:0.075125493 3000:0.11933735 3381:0.075125493 3592:0.11933735 3665:0.075125493 3786:0.075125493 3901:0.075125493 5971:0.11933735 6160:0.075125493 6214:0.075125493 6562:0.16968389 6772:0.16320841 6781:0.075125493 6874:0.075125493 7440:0.075125493 7733:0.14100231 8253:0.075125493 8293:0.11933735 8489:0.075125493 8658:0.075125493 9039:0.075125493 9826:0.075125493 9951:0.075125493 9996:0.075125493 10832:0.14100231 11047:0.075125493 11058:0.11933735 11690:0.11933735 12209:0.075125493 13580:0.075125493 13659:0.075125493 13804:0.075125493 13850:0.075125493 13870:0.075125493 15786:0.18126994 15933:0.11933735 17399:0.075125493 17432:0.075125493 18480:0.075125493 19049:0.075125493 19636:0.075125493 20197:0.14100231 20263:0.16968389 20587:0.075125493 20692:0.16968389 21193:0.075125493 21273:0.075125493 21440:0.075125493 22220:0.075125493 22361:0.075125493 22879:0.075125493 24337:0.075125493 24644:0.075125493 25322:0.075125493 25431:0.17454876 25552:0.075125493 25720:0.075125493 25893:0.075125493 27374:0.075125493 27574:0.14100231 28007:0.11933735 28945:0.075125493 29232:0.14100231 29592:0.075125493 30482:0.18126994 30627:0.11933735 30820:0.075125493 31365:0.11933735 31741:0.11933735 31757:0.075125493 32061:0.075125493 32161:0.17454876 32255:0.14100231 32440:0.075125493 33172:0.14100231 33394:0.075125493 34126:0.075125493 34756:0.075125493 35640:0.075125493 35739:0.075125493 36427:0.18555325 36466:0.075125493 36888:0.075125493 37791:0.14100231 38366:0.17830737 41479:0.075125493 #
-0.56976492841201975547704705604701 910:0.14249575 5647:0.14249575 6562:0.25892442 8356:0.14249575 8915:0.14249575 9865:0.25892442 16890:0.27973241 21440:0.14249575 22535:0.14249575 22936:0.22233239 23041:0.25892442 23045:0.29276904 24274:0.22233239 26599:0.14249575 26885:0.14249575 28874:0.14249575 28957:0.14249575 32440:0.31106532 34126:0.22233239 34951:0.31106532 36427:0.14249575 36466:0.22233239 40184:0.14249575 #
-0.017509554042620716074463160794039 1707:0.22471465 5056:0.14402257 7513:0.14402257 7733:0.14402257 8356:0.22471465 8717:0.22471465 9952:0.14402257 10152:0.14402257 11508:0.14402257 14785:0.14402257 15320:0.14402257 16241:0.14402257 16818:0.22471465 16990:0.14402257 19249:0.14402257 20771:0.26169875 21186:0.14402257 21440:0.14402257 21870:0.14402257 22953:0.14402257 24060:0.14402257 25766:0.26169875 27012:0.14402257 28270:0.14402257 30137:0.14402257 30820:0.14402257 31093:0.14402257 32161:0.14402257 36090:0.14402257 36427:0.22471465 36852:0.22471465 37265:0.14402257 39751:0.14402257 39990:0.14402257 40847:0.14402257 #
-0.74398749217865767224822093339753 132:0.082788318 388:0.082788318 1377:0.082788318 1603:0.13137423 2197:0.082788318 2411:0.082788318 3747:0.13137423 3921:0.082788318 4118:0.082788318 4546:0.082788318 6071:0.13137423 6090:0.082788318 6160:0.082788318 6319:0.13137423 6562:0.17928956 6971:0.082788318 7390:0.082788318 7733:0.20622823 8570:0.082788318 8658:0.13137423 8734:0.082788318 9019:0.082788318 9858:0.082788318 10819:0.082788318 10832:0.15509732 11300:0.15509732 11351:0.13137423 11690:0.082788318 11694:0.082788318 11847:0.082788318 12209:0.082788318 13133:0.082788318 13813:0.13137423 14998:0.082788318 15736:0.082788318 16240:0.15509732 16818:0.15509732 16890:0.19154626 17432:0.082788318 18849:0.082788318 19282:0.082788318 19364:0.082788318 19878:0.15509732 20263:0.082788318 21130:0.082788318 21193:0.082788318 22053:0.082788318 22113:0.13137423 22402:0.15509732 22553:0.082788318 22879:0.082788318 23045:0.082788318 23272:0.082788318 23329:0.082788318 24661:0.082788318 25564:0.082788318 26599:0.082788318 26617:0.082788318 26743:0.082788318 26832:0.13137423 27534:0.082788318 28026:0.082788318 28166:0.082788318 28470:0.082788318 29592:0.082788318 31320:0.15509732 31365:0.082788318 32161:0.13137423 33172:0.082788318 33291:0.082788318 33782:0.082788318 34151:0.082788318 35146:0.13137423 35757:0.13137423 36136:0.082788318 36427:0.20816053 36466:0.13137423 36852:0.082788318 36946:0.082788318 37037:0.082788318 37976:0.082788318 38305:0.15509732 38915:0.082788318 39898:0.082788318 41446:0.13137423 41479:0.082788318 #
0.72903076906232344711611403909046 388:0.18751636 2599:0.11952706 5146:0.11952706 5156:0.11952706 5971:0.11952706 6562:0.11952706 7608:0.11952706 7733:0.11952706 8957:0.11952706 9113:0.11952706 9437:0.11952706 9883:0.11952706 11479:0.11952706 11617:0.21935302 13692:0.11952706 15298:0.11952706 16505:0.26781639 16818:0.21935302 16990:0.11952706 18306:0.11952706 20221:0.11952706 20805:0.11952706 23329:0.11952706 26241:0.11952706 26575:0.23789595 27534:0.21935302 29334:0.11952706 29403:0.11952706 30482:0.21935302 30593:0.11952706 30685:0.11952706 31320:0.23789595 31701:0.18751636 32715:0.11952706 33935:0.11952706 34232:0.18751636 35938:0.11952706 36427:0.21935302 37522:0.21935302 39651:0.18751636 #
0.2933475270942679791197349459253 2197:0.089097649 2363:0.14132872 2413:0.089097649 2599:0.089097649 2857:0.089097649 3051:0.089097649 5647:0.089097649 5686:0.20580149 6506:0.089097649 6562:0.089097649 7733:0.14132872 8356:0.089097649 9052:0.089097649 9330:0.14132872 9883:0.089097649 9996:0.089097649 11479:0.089097649 11617:0.089097649 11690:0.089097649 12493:0.089097649 13204:0.089097649 13458:0.089097649 14163:0.089097649 14788:0.089097649 15264:0.089097649 15518:0.089097649 15786:0.14132872 16505:0.089097649 16818:0.14132872 17152:0.089097649 17432:0.089097649 17490:0.089097649 17878:0.089097649 18480:0.089097649 18650:0.089097649 19049:0.089097649 19371:0.089097649 22817:0.089097649 22879:0.089097649 23329:0.089097649 23796:0.14132872 24061:0.089097649 24337:0.089097649 25022:0.089097649 26241:0.16679531 26343:0.14132872 26575:0.20580149 26885:0.14132872 27922:0.089097649 29476:0.16679531 29592:0.089097649 30371:0.17335232 30482:0.2161241 30685:0.089097649 30845:0.089097649 31032:0.089097649 31320:0.20580149 32161:0.089097649 33394:0.089097649 33935:0.089097649 33998:0.14132872 35267:0.089097649 35757:0.14132872 36427:0.20580149 37199:0.089097649 37412:0.089097649 37489:0.089097649 37522:0.21345793 37927:0.20020567 39509:0.089097649 39898:0.089097649 41105:0.089097649 #
0.63193455878906379385995251141139 528:0.092100807 1603:0.092100807 2197:0.092100807 2599:0.092100807 3665:0.092100807 4228:0.14618059 5235:0.092100807 6562:0.14618059 7733:0.092100807 8356:0.092100807 8682:0.092100807 8688:0.092100807 9052:0.092100807 9113:0.092100807 9951:0.092100807 9990:0.14618059 10819:0.092100807 11047:0.092100807 11479:0.18869522 12178:0.092100807 15264:0.092100807 15450:0.092100807 15786:0.14618059 17900:0.092100807 18306:0.092100807 18941:0.092100807 20221:0.14618059 21186:0.14618059 22220:0.092100807 22402:0.17260425 22936:0.092100807 23329:0.092100807 25431:0.092100807 25476:0.092100807 25720:0.092100807 26261:0.14618059 26575:0.14618059 26654:0.092100807 27178:0.17260425 30032:0.092100807 30349:0.19957672 30415:0.092100807 30482:0.19957672 30685:0.092100807 31320:0.20740317 31365:0.092100807 31440:0.092100807 31445:0.092100807 31460:0.14618059 32161:0.092100807 32440:0.14618059 33935:0.092100807 34126:0.092100807 34232:0.092100807 35709:0.14618059 36427:0.22131386 36779:0.092100807 36794:0.092100807 37522:0.17260425 37658:0.19957672 37736:0.092100807 37927:0.17260425 38199:0.092100807 38259:0.092100807 38299:0.092100807 38898:0.092100807 41446:0.092100807 41479:0.092100807 #
0.92535364550459697774442702211672 608:0.13149558 1603:0.13149558 2599:0.13149558 6562:0.29301783 7178:0.13149558 8412:0.13149558 9865:0.13149558 10470:0.13149558 10832:0.13149558 11017:0.13149558 11806:0.13149558 12106:0.13149558 14487:0.13149558 18306:0.13149558 18857:0.13149558 19049:0.20677987 22402:0.28629816 25022:0.24234939 26109:0.13149558 26241:0.13149558 26575:0.20677987 27178:0.26326832 30349:0.20677987 30482:0.20677987 30528:0.13149558 32440:0.13149558 33394:0.13149558 33998:0.13149558 34126:0.13149558 35476:0.13149558 35757:0.13149558 36427:0.27689457 37522:0.24234939 #
0.81510766565367953617737839522306 132:0.086885929 1373:0.086885929 1603:0.1625223 1707:0.1625223 2197:0.086885929 3090:0.086885929 4228:0.086885929 5146:0.13775788 5686:0.13775788 5729:0.086885929 6562:0.081362024 6772:0.13775788 7178:0.13775788 7513:0.086885929 7514:0.086885929 7608:0.086885929 7733:0.1625223 8103:0.086885929 8356:0.086885929 8717:0.086885929 9951:0.086885929 10470:0.086885929 10996:0.086885929 11479:0.1625223 12568:0.086885929 13049:0.086885929 13850:0.086885929 14049:0.086885929 14165:0.086885929 14476:0.086885929 14949:0.086885929 14998:0.13775788 15320:0.086885929 15450:0.086885929 15786:0.1775468 17490:0.086885929 17561:0.086885929 18306:0.1625223 20221:0.081362024 22220:0.086885929 23518:0.086885929 23750:0.13775788 23849:0.086885929 24328:0.086885929 25022:0.086885929 25431:0.1775468 26241:0.086885929 26261:0.13775788 26575:0.18766774 26654:0.086885929 26787:0.086885929 26885:0.13775788 30349:0.1625223 30482:0.1775468 31320:0.1775468 31701:0.086885929 31726:0.13775788 31757:0.086885929 32107:0.086885929 33476:0.086885929 33515:0.086885929 33935:0.086885929 34126:0.086885929 35568:0.13775788 35614:0.086885929 35689:0.086885929 35757:0.086885929 36427:0.19491716 36794:0.18766774 37653:0.086885929 37791:0.086885929 37927:0.086885929 38199:0.13775788 38299:0.086885929 38305:0.086885929 38898:0.086885929 40434:0.086885929 #
-0.57392541772279459522110300895292 861:0.23154861 1282:0.10983631 1485:0.17278308 1707:0.10983631 3342:0.10983631 3774:0.17278308 5440:0.23154861 5971:0.22010449 6562:0.10983631 7178:0.17278308 9310:0.10983631 14016:0.22010449 14152:0.17278308 16011:0.10983631 16602:0.10983631 16862:0.10983631 18306:0.10983631 19080:0.10983631 19364:0.10983631 20263:0.22010449 21186:0.22010449 23353:0.10983631 23796:0.10983631 24535:0.10983631 25218:0.20256415 28943:0.10983631 29592:0.10983631 30482:0.23154861 30764:0.10983631 31256:0.17278308 31726:0.10983631 32255:0.10983631 32440:0.20256415 32977:0.10983631 34126:0.17278308 34567:0.10983631 36427:0.23154861 37199:0.10983631 37522:0.20256415 38154:0.10983631 38259:0.10983631 #
-0.43491657089239160738358691560279 422:0.13829905 1603:0.13829905 3342:0.13829905 5146:0.21731086 5500:0.13829905 6713:0.13829905 7371:0.13829905 7513:0.13829905 8412:0.13829905 8717:0.13829905 11630:0.13829905 11690:0.13829905 11847:0.21731086 12067:0.13829905 14122:0.13829905 15184:0.13829905 15786:0.21731086 19049:0.13829905 19371:0.13829905 22817:0.13829905 22879:0.13829905 23750:0.13829905 25037:0.13829905 25721:0.21731086 29592:0.13829905 30137:0.13829905 30482:0.21731086 30685:0.13829905 31701:0.13829905 31710:0.13829905 31726:0.21731086 33368:0.13829905 33484:0.13829905 33935:0.13829905 34567:0.13829905 35709:0.21731086 35757:0.13829905 36427:0.13829905 37927:0.13829905 38898:0.13829905 39624:0.13829905 40254:0.13829905 #
-0.54046887586955949522860009892611 1603:0.14689788 3342:0.14689788 3786:0.26884806 4697:0.14689788 5061:0.14689788 5500:0.14689788 5532:0.14689788 5894:0.14689788 6562:0.14689788 6700:0.14689788 7178:0.14689788 7608:0.14689788 8103:0.14689788 8412:0.14689788 16818:0.14689788 18306:0.23010926 18621:0.14689788 20221:0.23010926 22817:0.14689788 26261:0.23010926 30482:0.29126728 31093:0.14689788 31726:0.14689788 32440:0.26884806 34126:0.14689788 36174:0.14689788 36427:0.14689788 36432:0.14689788 37159:0.14689788 37522:0.26884806 37927:0.14689788 40847:0.14689788 #
-0.48359016726318648782267928254441 861:0.23412563 3342:0.11716549 5440:0.21563779 5532:0.18410346 5686:0.21563779 5971:0.21563779 6133:0.11716549 7178:0.11716549 7733:0.11716549 8266:0.11716549 8658:0.11716549 9310:0.23412563 9330:0.18410346 10009:0.11716549 11847:0.11716549 12178:0.11716549 14016:0.18410346 15264:0.18410346 15265:0.11716549 16990:0.11716549 17432:0.11716549 17878:0.11716549 18306:0.11716549 18885:0.11716549 22003:0.18410346 22879:0.11716549 29592:0.23412563 30482:0.23412563 31705:0.11716549 31726:0.23412563 32440:0.23412563 35938:0.11716549 36427:0.23412563 37522:0.21563779 38259:0.11716549 #
0.7031034411316640087008522641554 3342:0.12181981 3665:0.19180861 3786:0.12181981 5971:0.12181981 6506:0.12181981 7513:0.22503397 7733:0.19180861 8275:0.12181981 8356:0.12181981 9436:0.12181981 11058:0.12181981 11806:0.12181981 12209:0.19180861 13492:0.22503397 13864:0.12181981 14165:0.12181981 15298:0.12181981 15447:0.12181981 16420:0.24467388 16563:0.12181981 20587:0.12181981 21186:0.22503397 21210:0.12181981 22053:0.12181981 22361:0.12181981 23347:0.12181981 24217:0.12181981 25431:0.26647523 25719:0.12181981 25721:0.12181981 26575:0.22503397 27534:0.12181981 28907:0.12181981 29403:0.12181981 29592:0.12181981 32779:0.12181981 33394:0.12181981 33650:0.12181981 34232:0.12181981 35614:0.12181981 36427:0.19180861 37049:0.12181981 37949:0.12181981 40100:0.12181981 40455:0.12181981 #
0.46947652360287905892732851498295 70:0.07090956 146:0.11264683 189:0.07090956 388:0.11264683 417:0.07090956 689:0.07090956 861:0.11264683 910:0.11264683 1373:0.07090956 1603:0.07090956 1625:0.13310325 1707:0.11264683 3342:0.15407655 4285:0.07090956 5049:0.11264683 5146:0.07090956 5235:0.07090956 5440:0.07090956 5729:0.07090956 5775:0.07090956 5971:0.11264683 6506:0.07090956 6562:0.15407655 6772:0.07090956 6781:0.07090956 6874:0.16019461 6971:0.07090956 7085:0.11264683 7733:0.13310325 8293:0.07090956 8367:0.11264683 8383:0.07090956 10523:0.07090956 10657:0.07090956 10832:0.07090956 11690:0.13310325 13049:0.13310325 13179:0.16834489 13492:0.17338684 13502:0.11264683 13850:0.07090956 14163:0.07090956 14795:0.07090956 14946:0.07090956 16165:0.07090956 16420:0.07090956 16516:0.07090956 16990:0.13310325 17329:0.07090956 17571:0.07090956 17878:0.07090956 18006:0.07090956 18650:0.07090956 19070:0.07090956 19282:0.07090956 19782:0.07090956 20263:0.13310325 20805:0.07090956 20819:0.11264683 20881:0.11264683 21191:0.1648412 21420:0.11264683 21440:0.15407655 21481:0.07090956 22067:0.07090956 22079:0.16834489 22930:0.07090956 22936:0.07090956 23796:0.16019461 24274:0.07090956 24282:0.11264683 24661:0.07090956 25552:0.07090956 25618:0.07090956 25893:0.07090956 26575:0.17886347 27012:0.07090956 27534:0.11264683 29232:0.07090956 29360:0.07090956 29592:0.07090956 30040:0.07090956 30357:0.13310325 30482:0.13310325 30627:0.07090956 30685:0.07090956 31440:0.07090956 31701:0.07090956 31719:0.07090956 32161:0.07090956 32440:0.16479203 32779:0.07090956 33085:0.07090956 33394:0.07090956 34126:0.07090956 34232:0.07090956 36427:0.13310325 37265:0.07090956 37658:0.07090956 37927:0.07090956 38305:0.07090956 40506:0.11264683 40522:0.07090956 41479:0.07090956 #
0.66043260103749801270822672449867 3786:0.170964 7178:0.26841342 8355:0.170964 9883:0.170964 10832:0.170964 11168:0.170964 13753:0.26841342 14544:0.170964 18302:0.26841342 19070:0.170964 20263:0.170964 24028:0.170964 25491:0.31417635 26575:0.170964 27208:0.170964 29623:0.170964 30627:0.34091413 31710:0.170964 34126:0.170964 34600:0.170964 38433:0.170964 39758:0.26841342 40318:0.170964 #
-0.6360458639282704496054066112265 422:0.11199307 528:0.11199307 689:0.17614409 910:0.11199307 1373:0.11199307 1849:0.11199307 3774:0.11199307 3921:0.11199307 4118:0.11199307 4984:0.11199307 5049:0.11199307 5146:0.20647439 5527:0.23596264 7178:0.17614409 9052:0.11199307 10099:0.11199307 11159:0.11199307 13864:0.17614409 14356:0.11199307 14476:0.11199307 17707:0.11199307 17878:0.11199307 18800:0.20647439 18857:0.11199307 19070:0.11199307 19257:0.11199307 20197:0.11199307 20258:0.11199307 20299:0.11199307 20805:0.11199307 21810:0.24400128 24535:0.11199307 25766:0.20647439 25776:0.11199307 26241:0.11199307 27141:0.11199307 27638:0.11199307 28023:0.11199307 29438:0.11199307 31701:0.11199307 34183:0.11199307 34626:0.11199307 34918:0.11199307 35640:0.11199307 36427:0.23596264 36723:0.17614409 37119:0.11199307 38305:0.11199307 39044:0.22432528 39580:0.11199307 39758:0.11199307 40184:0.11199307 41587:0.11199307 #
-0.38641662772905194245254278939683 417:0.22458421 443:0.2448889 688:0.11153124 3478:0.11153124 5146:0.17578946 5497:0.11153124 5532:0.11153124 7484:0.11153124 7513:0.11153124 8317:0.20641062 9052:0.11153124 9951:0.11153124 10152:0.11153124 11300:0.11153124 13458:0.17578946 14165:0.11153124 14704:0.11153124 14946:0.11153124 15206:0.11153124 15235:0.11153124 15264:0.11153124 15597:0.11153124 16802:0.11153124 18941:0.11153124 19070:0.11153124 19364:0.17578946 19370:0.17578946 20137:0.11153124 20263:0.11153124 20399:0.20641062 20726:0.11153124 22879:0.11153124 25616:0.11153124 25893:0.11153124 26241:0.11153124 26885:0.17578946 27136:0.20641062 27534:0.20641062 28023:0.11153124 29592:0.11153124 31440:0.17578946 32399:0.11153124 33312:0.11153124 35322:0.11153124 35614:0.11153124 35938:0.11153124 36136:0.17578946 36427:0.20641062 36897:0.11153124 38626:0.11153124 41311:0.11153124 #
-0.63707299553999230390388675004942 70:0.073740676 348:0.1172833 689:0.1172833 910:0.1172833 1282:0.073740676 1410:0.073740676 1603:0.15185489 1707:0.073740676 2052:0.073740676 2197:0.073740676 2222:0.1172833 3342:0.16729848 3416:0.1172833 3534:0.073740676 3592:0.17902088 4628:0.1760038 5532:0.073740676 5816:0.073740676 6506:0.073740676 6874:0.073740676 7695:0.15185489 7733:0.15185489 8436:0.073740676 8570:0.073740676 8659:0.073740676 9124:0.073740676 9310:0.1172833 9826:0.073740676 9883:0.073740676 9951:0.16080849 10761:0.073740676 12780:0.073740676 13049:0.073740676 13616:0.073740676 13778:0.073740676 14165:0.1172833 14245:0.073740676 14729:0.073740676 15264:0.073740676 15300:0.073740676 15786:0.073740676 16241:0.073740676 17089:0.073740676 17432:0.1172833 18145:0.1172833 18164:0.16729848 18302:0.073740676 18346:0.073740676 18650:0.1172833 18941:0.073740676 20263:0.069269411 20635:0.073740676 21193:0.16080849 21259:0.073740676 22166:0.073740676 22220:0.073740676 22347:0.073740676 22879:0.073740676 23022:0.18489912 24028:0.1172833 24274:0.073740676 24337:0.073740676 25022:0.073740676 25431:0.073740676 25491:0.073740676 25552:0.073740676 26109:0.073740676 26261:0.1172833 27009:0.073740676 27136:0.073740676 27915:0.073740676 28023:0.073740676 28338:0.073740676 28348:0.073740676 28907:0.073740676 29360:0.073740676 29592:0.073740676 30482:0.073740676 30627:0.15185489 31320:0.073740676 31440:0.073740676 31594:0.073740676 31701:0.073740676 31726:0.13871196 32161:0.15185489 32577:0.073740676 33312:0.073740676 34126:0.17219819 34232:0.073740676 35476:0.073740676 35709:0.073740676 35757:0.073740676 35938:0.13871196 36137:0.073740676 36427:0.18342531 37522:0.1172833 38366:0.073740676 38483:0.073740676 39823:0.1172833 39899:0.073740676 41311:0.073740676 #
-0.62985983392682276527096973950393 5532:0.28750855 6562:0.50601339 8412:0.28750855 11705:0.28750855 19117:0.28750855 20263:0.28750855 24109:0.28750855 34232:0.28750855 36427:0.28750855 40100:0.28750855 #
-0.4197199955594584919182921112224 443:0.25894055 861:0.14257164 1080:0.14257164 1707:0.22239333 6562:0.14257164 7178:0.14257164 8307:0.14257164 9124:0.14257164 10919:0.14257164 10964:0.14257164 11058:0.14257164 11630:0.22239333 11806:0.14257164 11847:0.14257164 15264:0.14257164 17432:0.14257164 18857:0.22239333 20726:0.25894055 21481:0.14257164 22879:0.14257164 23817:0.22239333 24217:0.14257164 25552:0.14257164 25719:0.14257164 26445:0.14257164 27136:0.22239333 27633:0.14257164 28839:0.14257164 29801:0.22239333 33484:0.14257164 34567:0.14257164 35614:0.14257164 35827:0.14257164 36427:0.14257164 37159:0.14257164 41440:0.14257164 #
-0.94380717316742912537108622927917 3342:0.24842291 5312:0.31461692 5500:0.24842291 6872:0.15853292 8447:0.15853292 12607:0.24842291 15786:0.24842291 18621:0.31461692 25476:0.15853292 25527:0.15853292 25552:0.15853292 25893:0.15853292 26135:0.15853292 28907:0.15853292 29476:0.15853292 32161:0.24842291 32440:0.36077213 33935:0.15853292 34951:0.24842291 36763:0.15853292 38199:0.15853292 #
-0.4289882486668202266066884931206 2088:0.12281501 3592:0.12281501 3665:0.12281501 4880:0.12281501 5497:0.12281501 7376:0.12281501 7733:0.19379568 8263:0.12281501 8356:0.12281501 8734:0.12281501 8928:0.12281501 10761:0.12281501 11017:0.19379568 11806:0.19379568 11823:0.19379568 12579:0.12281501 15264:0.12281501 15320:0.12281501 15447:0.19379568 16011:0.12281501 19364:0.19379568 20805:0.12281501 21909:0.12281501 22402:0.12281501 22936:0.12281501 28957:0.12281501 29301:0.12281501 29592:0.12281501 30349:0.12281501 31260:0.12281501 31701:0.12281501 33142:0.12281501 33476:0.12281501 34079:0.12281501 34126:0.12281501 34151:0.12281501 34567:0.19379568 34935:0.12281501 35705:0.12281501 36403:0.12281501 36427:0.24801075 37199:0.12281501 37522:0.28274739 37658:0.19379568 37791:0.12281501 39108:0.12281501 41479:0.12281501 #
-0.25181812560249222654462641912687 189:0.092964336 422:0.092964336 2052:0.092964336 4285:0.17274344 5146:0.17274344 5500:0.092964336 5971:0.092964336 6517:0.092964336 6562:0.1468531 7513:0.1468531 7733:0.092964336 8356:0.18824109 8717:0.092964336 9883:0.092964336 10764:0.1468531 10819:0.092964336 10832:0.092964336 11508:0.092964336 11811:0.1468531 11823:0.1468531 12321:0.1468531 13533:0.092964336 13864:0.092964336 14796:0.092964336 15041:0.092964336 15265:0.092964336 15777:0.092964336 15786:0.21815659 16011:0.092964336 16273:0.092964336 16818:0.1468531 16980:0.092964336 19117:0.1468531 22451:0.092964336 22879:0.1468531 22936:0.092964336 23045:0.19853295 24278:0.092964336 25022:0.092964336 25218:0.092964336 25476:0.1468531 25719:0.092964336 26241:0.092964336 26599:0.092964336 26885:0.1468531 27235:0.092964336 28023:0.092964336 28331:0.092964336 28874:0.18824109 29016:0.092964336 30234:0.092964336 31440:0.092964336 31710:0.092964336 34126:0.1815556 35002:0.092964336 35827:0.1468531 36136:0.092964336 36174:0.092964336 36427:0.18824109 36897:0.092964336 37159:0.21510552 37927:0.17274344 38305:0.086733803 38620:0.092964336 38915:0.092964336 40318:0.092964336 #
0.32620039341029372081948167760856 1603:0.17402788 3342:0.17402788 5500:0.17402788 6506:0.17402788 6562:0.27135283 9990:0.17402788 11479:0.27135283 11806:0.27135283 12562:0.17402788 13692:0.17402788 17883:0.17402788 19049:0.17402788 20221:0.17402788 21186:0.17402788 25022:0.17402788 25776:0.17402788 26575:0.17402788 29651:0.17402788 30820:0.17402788 31242:0.17402788 33998:0.27135283 35739:0.17402788 36427:0.31584263 37658:0.17402788 37791:0.17402788 #
0.54968917768864655748473069252213 1625:0.10989089 1750:0.10989089 2052:0.10989089 3158:0.10989089 3239:0.10989089 3416:0.10989089 6562:0.10989089 6573:0.10989089 6874:0.10989089 7178:0.10989089 7514:0.10989089 8688:0.10989089 8734:0.10989089 9052:0.10989089 9310:0.10989089 10511:0.10989089 10761:0.10989089 11847:0.10989089 12607:0.10989089 15265:0.10989089 16420:0.10989089 16469:0.10989089 16494:0.10989089 17329:0.10989089 17432:0.10989089 17878:0.10989089 18060:0.10989089 18621:0.17316133 19080:0.10989089 19117:0.10989089 19545:0.10989089 20258:0.10989089 20263:0.22114515 21186:0.10989089 23716:0.10989089 23796:0.22114515 25218:0.17316133 25552:0.17316133 26575:0.24698889 28270:0.10989089 29801:0.10989089 30357:0.10989089 31093:0.10989089 32440:0.23288468 32628:0.10989089 33935:0.10989089 34567:0.10989089 34951:0.20328437 35757:0.10989089 36078:0.10989089 36427:0.24106969 36620:0.10989089 37522:0.10989089 37524:0.10989089 37658:0.10989089 39898:0.17316133 40508:0.10989089 #
0.34525952741834420312017073229072 654:0.095011778 910:0.095011778 1183:0.095011778 1603:0.095011778 1667:0.095011778 2228:0.095011778 2363:0.17687871 3381:0.095011778 4228:0.15024349 5500:0.095011778 6209:0.15024349 6502:0.095011778 6893:0.095011778 7061:0.095011778 7733:0.19288409 8000:0.095011778 8103:0.095011778 8367:0.095011778 8434:0.095011778 9113:0.095011778 9952:0.095011778 10841:0.19288409 11392:0.15024349 11658:0.15024349 11690:0.095011778 11746:0.095011778 12361:0.095011778 13124:0.17687871 13465:0.095011778 14165:0.095011778 14821:0.20355728 15184:0.095011778 15235:0.095011778 15300:0.095011778 16011:0.095011778 17152:0.095011778 18480:0.095011778 18800:0.088736229 19249:0.095011778 20299:0.095011778 20399:0.095011778 21440:0.095011778 21666:0.095011778 23271:0.095011778 23796:0.095011778 24171:0.20355728 24250:0.14270462 25322:0.15024349 26575:0.19288409 26638:0.095011778 26743:0.17687871 27009:0.095011778 27915:0.095011778 28421:0.15024349 30371:0.095011778 30482:0.095011778 30685:0.095011778 31701:0.15024349 32407:0.095011778 32440:0.095011778 34310:0.15024349 35267:0.095011778 36427:0.21668796 37976:0.095011778 39547:0.095011778 39898:0.095011778 40508:0.095011778 40658:0.15024349 #
0.20052451251407876764432103300351 528:0.064224184 861:0.12146154 910:0.064224184 1080:0.10245465 1183:0.064224184 1625:0.15821995 1667:0.10245465 2052:0.064224184 2197:0.10245465 2411:0.064224184 2540:0.064224184 3290:0.064224184 3342:0.12146154 3348:0.064224184 3921:0.064224184 5056:0.10245465 5235:0.064224184 5686:0.15536225 6749:0.064224184 6781:0.064224184 7513:0.064224184 8293:0.10245465 8383:0.10245465 8645:0.064224184 8663:0.064224184 8717:0.064224184 8957:0.064224184 8970:0.064224184 9002:0.064224184 9113:0.064224184 9330:0.12146154 9333:0.064224184 9862:0.12146154 10147:0.064224184 10832:0.064224184 10841:0.12146154 10913:0.064224184 11058:0.064224184 11300:0.064224184 11392:0.064224184 11479:0.064224184 11658:0.064224184 11690:0.064224184 11705:0.064224184 11806:0.064224184 12061:0.064224184 13049:0.064224184 13502:0.064224184 13692:0.064224184 13817:0.10245465 14016:0.064224184 14021:0.10245465 14245:0.10245465 14663:0.064224184 15264:0.064224184 15518:0.064224184 16784:0.064224184 16862:0.064224184 16990:0.064224184 17317:0.064224184 17432:0.14133826 17435:0.064224184 17618:0.064224184 18145:0.064224184 18480:0.064224184 19817:0.10245465 20137:0.064224184 20263:0.09799441 21191:0.1665736 21259:0.064224184 21440:0.064224184 21870:0.10245465 22079:0.064224184 22535:0.064224184 23409:0.064224184 23412:0.10245465 23733:0.064224184 23796:0.16965614 24171:0.057877075 24181:0.094534777 24274:0.064224184 24277:0.064224184 24535:0.064224184 24661:0.064224184 25552:0.064224184 25721:0.064224184 25737:0.064224184 26241:0.10245465 26575:0.16408405 26599:0.064224184 26787:0.10245465 26885:0.064224184 27534:0.15536225 27922:0.064224184 28023:0.064224184 28401:0.064224184 29237:0.10245465 29592:0.15180266 30083:0.064224184 30482:0.15180266 30764:0.064224184 31365:0.064224184 31440:0.12146154 31719:0.064224184 32148:0.064224184 32161:0.10245465 32440:0.1332358 32462:0.064224184 33142:0.064224184 33616:0.064224184 34126:0.14727287 35267:0.064224184 35640:0.12146154 35757:0.064224184 35923:0.064224184 35938:0.064224184 36078:0.064224184 36137:0.064224184 36194:0.064224184 36403:0.064224184 36427:0.16247766 36620:0.064224184 36976:0.064224184 37508:0.064224184 37791:0.064224184 38305:0.1332358 38391:0.064224184 39145:0.10245465 39509:0.064224184 39879:0.064224184 41105:0.064224184 41358:0.064224184 41450:0.10245465 #
